1.445009
-0.240509
-1.607148
1.446831
-0.171713
-1.730574
0.413830
-0.434416
1.543582
0.150524
2.458467
-2.366801
0.182856
-0.999368
-0.641444
1.850076
1.833514
-1.621387
1.575935
-0.015823
-2.911410
-2.785024
0.654999
-1.444583
-3.394421
-1.517713
2.006060
1.220424
1.720569
-2.001898
3.231473
-0.206650
0.415077
1.856117
0.158388
0.177677
2.889274
-3.232349
-0.473081
-4.467294
3.210739
-0.651437
0.617209
-0.371393
1.782369
-3.270340
3.116049
1.065152
-0.228435
2.027034
4.110523
-1.785870
-0.453365
2.812061
-2.918973
0.377749
-2.591417
3.381986
1.291977
-2.737245
-1.623153
1.241558
2.029448
-0.755817
0.370793
-0.970579
4.108277
-0.509812
1.855655
-0.262964
0.917168
2.659941
-2.443738
-0.536438
-1.025660
1.120910
0.102296
-0.668762
0.106258
0.057523
-1.416126
-0.471432
-0.890769
0.516222
0.825581
1.366519
1.212886
-1.492445
4.811970
1.310761
-2.764620
0.210335
0.962180
-0.695299
-0.922448
2.419706
-1.258846
-0.548253
2.727164
-1.507116
0.286972
-1.555470
1.933332
-0.054438
3.058438
1.626034
1.086864
4.898830
1.150706
0.951617
-0.417560
-2.701564
1.023631
-1.189737
-1.827576
0.714783
-0.746139
0.895486
-0.874719
-1.294497
0.252392
0.750400
0.856900
-1.663156
0.996648
-1.738925
0.487918
0.497379
-1.715600
1.209849
-0.584543
1.105904
0.853400
-1.938339
-0.206340
0.063250
0.606272
1.255250
0.674169
0.417106
0.989852
2.002420
0.051991
2.360049
1.894907
4.108450
-1.682327
-0.821143
-2.444350
-1.143399
1.026428
3.323363
3.445058
0.055914
-0.326077
-2.318417
0.744337
-1.415601
-0.007092
0.413096
0.483232
-1.584459
2.358022
2.441295
-2.426358
-0.619585
-0.488590
-2.045262
-3.369728
2.365389
0.777785
-1.139250
1.419171
-0.289763
-1.446907
-0.037321
-0.126000
-4.011093
-0.928627
-2.089220
1.047525
3.851621
3.631117
-0.468455
0.286418
-2.174619
1.717379
1.198823
0.788039
1.962691
-2.963967
1.150741
1.995212
-0.126736
1.969292
3.632267
3.923998
2.052020
-1.545615
3.172137
-0.374732
-0.757336
0.488817
-0.080984
0.994897
0.588872
-2.140675
3.033985
1.091670
-1.980619
-1.680451
2.285698
-1.974442
-1.959923
-2.739285
-0.137331
0.683395
1.773390
-0.730365
-1.355099
2.066522
-0.521723
0.838218
0.887116
1.444096
1.893542
0.481723
2.085694
-2.050343
-3.703274
2.077319
-0.275945
1.565934
3.490501
3.539286
-0.753788
-2.643253
0.320236
1.325075
-2.197051
-1.422383
0.378113
-0.187274
-0.907794
-0.340708
1.545149
0.620928
-1.450898
2.493781
1.933679
-1.803601
-3.514674
0.741210
-4.629068
0.159057
-0.782821
3.273697
2.349815
1.095986
-0.660969
-1.868705
-1.288100
2.968926
-2.846557
-1.787253
1.125203
-3.620772
-0.914083
-1.171892
4.207492
-1.555194
-0.601118
2.838312
-3.750218
-3.698862
1.528722
-0.389887
0.241707
-0.366712
0.409365
1.217670
-0.751603
0.525266
0.969214
0.274089
-2.388400
-0.985944
-0.852641
0.527777
2.367455
-0.365763
-0.674928
-0.775564
1.534495
-2.894380
0.174075
0.904731
-1.386026
1.915617
-1.142276
3.008390
-3.682328
-0.069653
2.387593
-1.532328
1.556906
-0.655646
-1.396205
-3.144810
-1.561616
2.790080
-0.507177
0.240930
1.387517
-0.913939
0.332643
-0.073145
0.176912
-0.049048
-1.509550
-1.542370
-0.143305
-1.264639
1.556404
-3.145863
2.965646
0.766120
2.446264
-0.437278
0.596929
0.661149
-1.018045
0.681988
-1.075225
3.058317
1.179045
0.228292
0.831771
1.693911
-2.198023
3.300153
-3.298282
2.304517
0.056840
0.534846
0.824706
0.277518
0.010153
-0.173166
-0.653910
-2.399155
2.936095
2.308115
-0.344181
-1.576131
-0.517030
-1.714463
3.251509
1.244568
-0.042949
-0.163335
-1.576757
-2.402704
-0.864334
-2.009201
0.350557
1.344266
0.046107
0.247044
-0.779525
0.192880
-0.093788
-0.774744
-2.103018
-2.438373
0.212417
0.867576
-2.039024
-2.936113
-3.179707
2.500233
-0.759435
-1.401769
-0.601359
-0.786832
4.244220
2.043692
-0.747987
1.222886
1.015649
1.368638
-3.031163
-2.481131
2.260889
2.084391
-0.771293
-1.159789
2.077238
3.280016
-0.220593
-1.785575
-4.736202
-0.499070
-3.995975
0.029103
-0.526995
-0.585014
-0.206874
-3.448174
-0.369499
-1.383763
-1.622694
3.696754
0.928756
-1.343418
-0.128353
1.964397
1.268744
0.983837
-0.514678
0.120655
0.983585
-1.707695
1.673330
1.651849
1.420220
-4.532405
-0.570151
1.379536
1.401956
-1.190659
-2.010577
-2.641898
1.355061
4.601338
4.402224
1.409121
-0.391240
-0.761207
2.099731
-0.462072
-1.663722
0.200080
-2.215144
0.211793
0.934216
-2.835267
-0.074309
0.737519
1.645726
-0.792619
1.843935
-2.312873
-0.412815
-2.522687
-0.796557
0.674825
0.441179
-2.411275
2.114039
1.018810
3.550815
-1.945400
-0.078691
2.776790
4.076885
-1.177496
0.041742
3.667134
2.839726
1.026637
-2.846185
-0.652234
-4.563268
-0.044318
1.117605
0.087252
0.953595
1.105150
-0.618716
-1.560527
-2.279291
3.626510
0.366325
2.516125
-0.684906
-1.072295
1.290832
-1.701311
-0.883975
-0.844524
1.876957
-1.486720
-0.210519
1.738177
-2.089502
1.253625
-0.200108
-0.581144
-0.091662
0.763271
-1.777768
0.001422
-0.055883
2.354049
-0.822382
0.161120
-4.755609
0.117624
-1.182986
1.227292
0.270529
0.345297
-0.181468
-1.790319
1.464796
1.250789
0.931043
-0.903299
0.405164
1.713512
-0.396408
1.094572
-0.234287
-0.185216
1.133236
0.020026
2.485072
-0.194742
2.658955
-1.902389
3.050752
3.370013
0.417201
-1.893313
-2.046325
0.859718
-3.090375
3.076145
0.448213
-1.817250
0.202612
-4.384800
-0.091269
-0.294374
1.829411
0.333888
0.418202
-0.455656
1.877428
-0.580987
-1.148413
-3.540239
0.512707
-1.703131
1.377996
-3.095519
-3.644217
3.251685
1.705326
-2.423549
0.224712
1.197281
0.450834
0.570032
-2.264540
-1.075650
0.993842
1.906726
-0.013489
0.412243
0.900676
1.174734
-0.128462
0.516353
0.409061
-0.109385
-1.638165
0.982126
-2.475570
0.473939
-2.040024
-0.321835
0.923410
-1.180626
-0.269092
2.418902
1.138051
1.939714
-1.202209
1.150445
0.032492
-3.243676
-0.411650
-1.105533
-0.884806
-1.637637
3.919080
-2.412131
-1.432174
1.715837
0.060854
3.124884
-1.575245
0.987875
-1.025519
3.183812
0.793564
-1.291605
-1.681530
1.584951
4.003655
-2.964179
-1.102193
-1.520371
-0.995375
-1.747194
-1.171763
-0.141402
1.337559
-2.254261
-1.474399
-0.062624
-1.283265
2.411313
0.851815
-2.505877
1.404808
1.031269
-1.612368
0.346978
0.285176
-0.839025
1.223923
1.573958
0.078217
0.621827
-2.003977
-0.422704
-0.700880
1.937133
0.743404
1.302406
-5.130742
-0.331323
-1.273186
-3.170558
-0.762261
1.842795
-1.605555
1.755541
-1.066196
-0.093213
0.902230
3.195826
2.739370
1.210006
0.851098
2.074322
-3.723588
0.255578
-1.484247
-0.275735
-0.873596
-1.142317
1.247328
-1.765492
0.454235
0.131689
-1.892189
2.051653
2.017248
-0.156648
0.993849
-3.225466
-3.749502
-3.598855
1.597069
0.317209
-1.036520
-1.448948
0.168791
-0.060050
2.156306
-2.353859
1.236769
1.107209
-2.715712
1.467736
1.986416
-2.201547
1.220244
-0.489494
2.321432
-1.148642
-2.038771
-0.701300
-0.566964
-0.612152
0.335555
-2.797667
-2.673406
-2.007176
0.546746
0.140801
-3.034778
-0.272292
-0.478808
3.600656
0.876692
0.043980
1.636512
-0.110870
-0.025909
-1.535720
-1.367444
-1.058508
-0.862645
0.626897
-0.978888
-1.585538
0.497466
-0.376674
-1.231952
-1.452416
0.263011
2.426823
0.913611
-1.829006
1.833139
1.061287
-1.199692
-1.460532
0.009109
-1.569712
-0.461748
0.538211
0.912047
-0.915212
0.572793
-0.211010
-0.874863
-1.287537
3.817486
4.056518
1.920760
-0.206909
-0.826177
-1.026017
1.917594
-1.847227
0.921957
0.766736
3.553269
-3.335255
-0.180633
-0.966811
-0.821536
4.669126
0.157974
2.197158
-1.243494
-0.667754
0.477379
-2.239707
2.375473
1.686004
2.359820
-3.598952
-0.233295
-3.391525
-2.373324
-0.478102
0.952819
2.521840
-1.002543
-2.001011
-0.729417
2.903277
-3.274099
4.809442
-0.626841
-0.079869
2.600669
