2.170280
0.859882
-0.004579
-1.225209
-2.206935
-0.915014
-1.307094
1.498780
-0.658855
0.302263
-3.319609
-2.742692
0.854059
-1.126355
1.540236
-0.826291
-4.258980
-0.091154
0.091468
-1.479579
-2.649167
-3.462768
-2.382991
1.677609
-5.164279
0.817894
1.485336
0.722665
-4.237458
0.959517
-5.152748
-5.990087
0.341476
-1.390446
-2.708003
1.106078
-4.345110
-5.811036
1.864586
0.316602
0.356420
0.614072
-0.511673
-3.540808
1.682866
0.384255
0.124409
0.378539
-1.661802
0.656107
1.434439
1.615330
0.575141
-1.648817
0.391123
0.305047
-1.264621
-4.217181
0.156415
-0.292887
-3.653119
0.703075
-0.736343
-4.750602
-2.636845
0.520257
-3.291482
-0.502594
0.994239
-3.667955
1.092057
0.408887
-0.182641
-0.060651
1.320925
1.069820
0.598967
0.426156
-0.214999
-5.995986
-0.048776
0.808338
-0.531481
0.518942
0.221299
0.175513
-0.883830
-0.330351
0.251145
0.092678
1.197353
-0.203648
0.450055
-2.719325
-0.411386
-2.805077
0.218819
-4.630346
-0.319353
0.433182
-0.705934
2.162506
-4.751619
-1.666781
-0.963405
-3.195787
-2.324644
-2.842861
-2.700534
-1.888168
0.504495
-0.109328
-0.741306
-1.664067
-1.012267
4.118341
-1.871722
2.770446
-0.233216
3.164112
0.718607
-1.898039
-1.928267
-2.313476
1.100576
0.628866
1.828797
-2.136335
1.538509
-2.987135
0.767317
1.366026
-3.673942
2.407115
0.493017
1.629903
1.847303
1.742192
-5.878587
3.432529
0.632808
0.081308
2.494967
-4.102533
-0.305536
2.770095
3.099640
2.034595
-1.667644
-0.490149
1.201870
-0.921474
1.388922
-2.049166
-1.061938
-2.612118
-2.558527
-3.829939
-0.186652
-3.248807
2.599839
2.300608
-0.941036
2.046269
0.550734
0.949509
2.415788
1.467466
1.755183
-3.408926
-0.448294
-0.137198
-2.191273
0.746512
2.537909
1.289868
-2.438595
2.055447
-3.791820
-4.001970
2.140267
-0.683799
3.297800
-3.017309
-2.395843
-2.788564
-1.484152
-0.974432
-1.092350
0.110104
1.529822
-3.932909
-3.218260
-0.340759
2.023979
0.246860
-2.853895
0.901060
-3.382558
-3.130915
-2.359272
-2.574509
-2.478382
1.689670
-1.949579
1.088712
2.078460
-3.200008
-3.023697
0.250151
-3.315652
-1.084550
-4.245623
0.530008
0.490290
-3.487892
0.449414
-4.471860
-2.002636
0.753764
0.821698
-3.083910
-3.543323
4.211859
-2.888071
1.740780
-1.733728
2.413641
2.388022
1.276662
-3.064479
2.051599
-3.965072
1.144307
1.026276
1.883948
1.785792
0.658834
-3.463849
3.872080
-2.227552
-4.176185
0.755497
-4.661159
2.034666
-2.831161
0.318409
-0.250556
-2.428017
1.695889
-1.612985
0.205894
-0.632660
2.154101
-3.587814
0.372532
-3.623727
-3.321373
-1.421821
-3.980329
-2.025288
0.929395
-4.109549
2.710540
2.381407
2.413780
-1.000656
2.200685
-3.467292
-2.773850
-2.070011
-2.319493
-1.754893
2.153751
2.260097
-3.886844
1.906119
-2.453167
-3.921469
2.422136
1.500217
-1.109604
-2.151626
-3.218491
-2.154183
1.470805
1.428674
0.921310
-0.669724
1.637895
-0.236989
3.146461
-2.984917
2.771686
-2.299794
-1.893224
-0.337930
-5.369081
-3.113015
1.852927
1.607678
2.357154
-2.550122
2.379819
2.043130
-2.298808
0.335811
-2.986843
1.690121
-2.775563
-2.167129
-3.538035
0.129987
-2.981664
-4.623763
-3.521297
-4.822811
-2.450911
0.840494
-2.038823
0.794219
-0.162319
-3.032365
0.154225
-3.476293
1.150604
-1.223839
-2.226707
-1.295311
0.982143
-2.778780
-3.917431
-4.078802
-3.820928
0.310522
-0.801509
-0.731524
0.785454
-2.684681
1.603936
-1.362398
3.393633
-3.096586
-3.025680
0.118077
-0.858505
2.885445
0.360642
-2.853734
-2.417247
-0.035871
-2.463632
-3.555910
-4.638410
1.380458
-0.018467
1.707369
-3.285861
-2.807056
-1.451857
-3.268622
1.371701
-2.986000
2.028729
-0.973094
0.035130
-0.178484
0.656813
-0.417019
-0.472854
0.622194
-0.512740
0.480404
-0.311552
0.327239
0.261935
-0.696095
-0.508010
0.930247
0.632693
0.550103
-0.342952
-0.981233
0.662720
-0.466115
0.244485
0.297518
-0.004065
0.733086
-0.310057
0.371143
0.063709
0.401765
0.812267
-0.529168
0.538070
-0.044610
0.359530
0.230780
0.442370
0.918227
-0.139786
0.928492
0.515214
0.596038
0.307741
-0.082965
0.947833
0.784730
0.035685
0.355409
0.429870
0.351660
0.488785
0.100835
0.909364
-5.246952
-2.744139
-1.424677
-1.180549
-0.586570
-0.151987
-0.545084
-5.136423
-1.584931
-1.994316
-0.703039
0.407162
-0.535467
-3.390411
-2.346953
-6.417124
-5.965609
-0.952859
1.074355
0.145159
-2.779966
1.261378
0.449288
-0.154118
-0.237006
0.389088
-5.912105
-2.994118
-1.958822
-6.074814
1.742207
-2.846850
-3.662382
-4.861693
0.359612
0.364157
1.091026
1.374108
2.105530
-1.884388
-0.149258
-2.498416
0.573645
-0.762494
-0.373915
-0.384329
-1.498472
0.503167
-1.931919
-1.301416
-0.261589
-0.521573
-0.880209
0.235819
1.273757
-1.678285
-0.580287
-4.273502
-5.711909
-0.583517
3.103131
2.287667
1.314154
-4.724317
0.416028
-3.775734
2.019016
-0.216434
-0.322417
1.428343
-4.810747
-0.725763
-2.681413
0.196109
1.149142
-1.315269
1.002252
-3.488007
-4.044899
0.720679
1.105658
0.547686
0.569254
-2.232094
1.581858
1.025372
-4.616763
-3.857064
0.162090
-0.387636
0.842744
0.839924
0.361101
-1.788968
0.232372
-4.695270
-3.952915
-2.906531
-0.025329
0.841703
-2.954609
1.277093
1.259658
1.661770
-3.299693
2.322142
-2.904733
-3.568447
1.254734
-1.742388
4.444063
0.307635
2.784553
-3.384977
1.449416
-2.885926
-3.630154
0.162255
-2.874507
-0.598065
-0.206173
-0.935825
-2.959156
-1.717981
-3.473085
-3.402041
-4.214550
3.089748
1.761730
-2.635752
-2.816160
1.684143
2.162514
-2.860902
1.769971
1.712095
-1.929219
2.121110
-2.885260
-3.472386
1.518670
2.014326
2.603654
-0.943139
-5.108517
0.942268
-4.225385
1.473155
1.446835
-3.134408
0.795787
-4.631086
-3.416934
2.260259
0.755161
-1.905048
0.746770
0.843714
1.689815
1.384410
-3.774410
-2.364760
3.249399
1.894190
-4.406594
-4.882798
0.894226
-3.428652
1.608834
-2.826792
2.011916
2.054980
2.118474
1.224960
1.594146
1.582717
0.711942
-2.797949
-2.596995
-3.041145
2.097979
-1.724112
-3.554424
-1.034960
1.265095
1.062674
-4.093700
-3.542360
-0.722957
-3.045614
-3.346933
-3.872181
2.430735
4.226657
-4.760446
2.505563
-4.677625
-2.885551
2.764418
-3.493712
-4.435395
-0.845591
2.297647
1.274758
-1.802108
2.100275
1.897048
-3.205840
1.081728
-2.722193
1.808759
-0.672690
-0.905107
0.753789
0.465909
-2.036198
-2.905740
-1.698331
-3.967686
0.899138
-5.233138
0.442013
0.800000
-1.079054
-1.461089
-1.031528
-1.670248
-0.404636
-4.005097
-1.519546
-3.065544
-4.109674
-1.477718
0.409907
0.206105
2.884143
1.010664
-0.804704
-0.183288
-2.189126
-4.742666
-2.541224
0.849382
0.726563
-2.358674
-1.189685
-3.328767
-3.639587
0.695937
-1.547636
-4.469737
-3.972569
-0.068171
-1.394569
0.761036
2.212018
0.061792
0.372676
-3.741869
0.575764
0.744150
0.518558
-0.983289
-0.711567
0.048364
-3.012490
-4.832327
-0.559718
1.933186
1.581454
0.124453
-2.382936
-1.219477
0.678833
0.879014
-0.237347
0.739454
-3.372831
0.946943
-0.308716
-0.184507
1.216591
-1.177984
0.038945
-1.210575
-3.241946
0.742486
-1.479240
-0.966739
-3.107434
-3.689323
-0.167650
0.674653
-3.192066
-2.511676
-1.181979
-1.867302
1.135323
-1.615660
-3.651167
-0.834545
-1.917450
0.002101
0.562525
0.630973
0.343605
-1.938671
-0.175447
-1.888171
-4.068402
-1.484319
-1.854260
0.970290
-4.021599
-2.458259
1.908642
2.013164
0.415813
-1.441489
3.632113
0.994959
2.745531
0.419665
-3.180096
-3.611826
-3.740829
-3.600417
-3.121467
-1.938926
-3.106127
0.343006
-2.769246
-2.071079
-4.671434
2.725088
-1.646046
-3.904690
-4.435760
-1.968849
-1.970331
0.191977
2.387686
1.885732
1.489783
-2.004063
-3.698817
0.521818
-4.051573
0.671666
-1.536466
-2.838902
1.752160
1.445614
-0.553910
-1.975258
2.572950
1.753556
1.503974
-4.534013
0.535097
1.588681
1.739781
2.289505
1.244268
3.746567
0.623780
-4.887167
-3.363457
0.749827
0.726678
0.560687
-2.230315
-3.285609
-3.531682
-0.440685
-4.014591
3.338575
-2.384135
-2.771436
-3.372622
-3.215630
0.771640
-4.277280
-1.155577
1.315683
0.115489
0.739100
0.658099
-3.105873
0.050788
1.242330
0.252524
-0.259501
-4.105686
1.763402
-0.347364
0.349617
1.958716
0.912390
3.275994
-3.534369
1.851311
0.789545
-0.189457
1.711869
1.469496
-0.376284
-0.273344
-4.022385
-2.569420
-4.694269
2.510797
2.077110
-1.068725
-4.191830
-1.359731
1.516372
1.137167
-0.610455
-1.289004
-3.275512
2.664386
-4.169228
1.398352
-1.283868
1.167783
2.408820
-1.822530
-1.210355
1.207755
-4.555243
1.576051
-3.295081
2.173370
1.070761
2.111380
1.174338
-2.086112
-2.851398
-2.453571
-1.613393
1.985844
-2.057505
-1.171694
2.265146
-3.172987
0.487201
-2.619483
-0.936760
-1.238462
-1.869102
-2.547118
0.019786
0.468416
-0.272401
-2.617697
1.872865
-2.599921
2.007908
-2.193082
-0.876273
3.210250
1.868772
-0.467108
1.521185
-2.021792
0.157856
1.835648
-0.193062
2.295549
-0.045941
-3.668653
0.889221
-1.517773
-3.153593
-3.131261
-3.608914
-0.040276
0.595185
0.853293
-0.067079
-3.317430
-0.665675
-0.773477
0.198539
-4.195204
-4.055392
0.332893
0.418427
-0.766879
-2.308739
0.234872
-1.378866
-3.912114
-0.423142
-1.973876
-1.382546
-3.874494
-2.588962
-1.417980
-0.614484
0.213953
-2.763154
-1.844803
-3.258646
-3.456206
-0.409462
0.361986
3.189091
-5.279172
0.426351
-0.589574
-4.557393
-3.558989
0.193278
-5.287138
-3.860049
-3.959004
0.567716
-2.921046
-3.826579
-2.726426
0.114022
-2.417625
-1.831056
1.968460
-0.680434
0.986330
0.474192
-0.357545
-5.553356
-0.886680
0.291431
1.583501
1.377402
-0.656524
-3.279400
-1.672368
-0.047088
-3.737938
0.233542
-0.641807
1.189480
-3.662233
1.103781
-4.948953
-2.338313
-2.206733
-1.635850
-0.564985
0.347059
0.709116
0.225635
-2.159281
-0.827742
1.109944
0.514246
0.548428
-0.900581
-3.841922
0.327483
-0.212669
-1.529279
-0.632887
-1.295551
0.071341
-0.695313
0.866259
-1.495817
-4.056673
0.308545
1.080660
-1.278897
-0.629769
-0.800252
-1.319469
-1.172536
-0.566477
-5.887210
-1.637067
-2.081666
-1.787773
-0.087304
-0.880873
-0.772899
-1.040737
-0.107051
-4.322995
0.099719
-2.199093
-2.012268
-1.226050
-1.199357
-0.209766
-0.403313
-1.359984
-2.212598
-1.381222
-0.372970
-0.712064
-1.673627
-1.192006
-0.080582
-1.650757
-2.920090
-1.333213
-0.896601
-0.583034
-0.618399
-1.809941
-1.470443
-1.779730
-0.961409
-1.759368
-3.887199
-1.841604
-1.061339
-0.439748
-1.121897
-1.364867
0.060972
0.048710
-0.458396
-0.488969
-1.698292
1.707757
-4.163586
2.167574
3.018848
-0.438323
1.300625
-3.196003
-1.042947
2.150667
-2.045698
0.313857
-2.164019
1.724998
1.555715
0.205905
2.148868
-0.867392
0.838934
2.177118
0.297331
1.444255
-1.857714
-2.474722
0.946727
-1.672107
-0.496210
-4.560589
-0.311832
-1.941181
-3.669184
-4.505675
1.434877
-2.978263
0.230649
-0.568839
-3.998891
-1.717193
-1.861236
1.840558
-0.279642
2.578990
-1.461549
1.013059
1.297043
-4.666028
0.353887
0.706643
0.669582
-2.710953
-2.245882
-3.848904
1.472102
-3.831631
2.655949
1.279152
-2.173428
-4.066464
1.704756
-3.134778
-4.516559
3.554806
3.495480
1.161304
-2.121342
0.195948
-3.968482
-0.941571
2.902634
1.507398
1.794109
1.437131
2.035304
-0.164376
-0.971989
3.015651
-2.216766
2.599605
-1.749988
-3.382452
-1.091382
0.558658
-4.234183
-1.972514
-3.525965
0.610006
1.067519
0.827782
2.455944
-4.419324
-3.816733
-2.266813
-4.387295
-3.400354
2.292169
0.927898
-4.075520
0.330245
-2.506086
-3.941812
3.968368
0.267987
-2.925948
1.605986
-4.329667
0.512766
1.871494
1.428641
-2.417594
1.219986
-0.571745
0.709146
-2.606923
-2.263819
-0.812842
-0.699703
-0.750760
0.932642
-1.694928
1.107365
-3.438199
-1.596805
0.621470
-2.714717
-2.543871
0.077754
-0.485170
-2.008864
0.527176
1.638919
-0.339147
0.440488
-5.206856
0.277090
-0.229817
-1.124038
-4.817856
1.028788
-5.440946
-0.189773
0.090848
-2.438929
0.279182
-0.412693
-2.313828
-0.497945
2.090741
-3.025028
-3.682988
-2.790621
-0.275476
-1.500133
-0.463262
-0.218371
-1.180982
0.736230
-1.003468
-2.377044
-2.498467
2.551466
-1.560657
-1.801790
2.486774
-1.920610
-2.358694
0.943723
-0.920995
-1.810925
-1.340535
-2.828005
1.768526
2.685705
-2.581638
1.211383
-2.720821
-1.453824
2.639713
-1.707126
-1.893298
-0.667113
-0.753130
-2.173838
-2.694169
0.149301
4.213680
2.278835
-2.454000
2.275288
2.912952
-2.137405
-2.009885
3.301368
-1.896435
-3.082223
-1.628427
-0.194435
2.736394
3.759998
-2.442582
-3.386726
2.977509
1.256537
2.975115
1.516065
-1.429310
-2.300486
2.918392
0.869443
-3.541051
-2.050270
-1.993950
-2.763942
-0.958198
-1.550633
0.835999
-0.933293
3.003670
-0.348991
0.416716
1.751101
2.664402
-3.184294
-3.930206
-3.482870
1.455317
2.344587
1.863449
-2.405496
0.211955
2.294000
2.005187
1.076489
3.068678
-3.098462
1.796710
-1.216848
-3.245854
0.885213
-1.295962
-2.356235
0.196601
1.642152
1.824709
-3.520688
1.379821
-4.254775
-4.528604
2.533086
-3.095252
-0.078390
-0.954555
1.057810
-1.238242
-1.281476
0.540685
-2.993506
0.944869
-1.642752
-3.599190
-2.539509
-4.158530
-2.921103
-2.719017
-2.737922
-2.981290
1.295894
-3.154870
-2.913590
0.836397
-3.765492
-2.845483
-0.278761
-3.928311
-3.552153
-4.505360
-2.608206
-1.132971
1.778184
-0.295842
-4.333183
-2.486901
1.517550
-3.571976
-4.257951
-2.630947
-0.782775
-3.039409
-1.004732
1.035125
-0.904728
2.983610
-2.346115
2.040739
2.041447
-0.274661
-0.084342
0.290748
-2.831541
-3.472004
0.968970
0.280768
0.513909
-0.202545
2.435975
0.485703
-0.137166
0.814373
-4.675271
0.570943
-1.908322
-0.683926
-0.117227
-1.323824
-2.842509
0.994764
0.687261
0.850974
0.934332
-0.872227
-3.433840
-0.049098
-1.045643
-4.157205
0.553564
0.200640
-2.356501
-0.390450
0.831997
-1.014614
-2.012416
-0.245593
0.535872
-2.913352
-3.348164
0.006740
-1.439577
0.278569
-1.619229
-0.360056
-3.482547
-5.104769
-1.789999
-3.616389
2.101977
-3.171694
-2.894961
1.267253
0.083801
-1.013391
1.386866
-3.326561
-2.570779
-3.531303
-3.456307
-4.604736
-4.835416
-0.941834
1.131936
-3.410443
-2.128945
-3.988395
0.307044
-1.526666
-4.725468
2.148107
1.773879
1.785518
0.564482
1.321176
-5.383411
1.251030
0.713797
0.916226
-4.863176
0.011602
0.330802
-0.126060
0.229855
1.535012
-0.370592
0.655435
-3.500453
-2.828293
-5.095733
0.711127
-4.012311
1.040519
1.967154
-5.257255
1.532449
0.216928
3.476026
0.755698
-3.184997
0.099292
1.672542
1.316400
-2.810089
0.302496
-1.051256
-3.171934
2.195125
-2.957564
-3.448369
-1.908376
-2.550123
-1.360664
2.115040
-0.372416
2.779907
-3.867821
-4.266847
-3.868456
-3.806854
-4.010047
-0.791358
