-0.253531
0.504517
-0.578163
-0.081370
0.940563
0.694799
0.682705
1.007299
0.555891
0.141289
-1.015818
-0.952711
-0.000886
0.600357
0.313111
0.013106
0.060905
0.487129
-0.093148
0.513474
-1.012302
0.746268
0.073589
-0.703375
-0.646382
0.186969
-1.000758
0.485699
-0.235216
-0.294316
-0.815057
0.492802
-0.789615
-0.437192
-0.642489
-0.828773
-0.845034
-0.782274
-0.886929
0.718155
0.335061
-0.883170
0.786797
-0.549197
0.807382
0.136613
0.384591
-0.190176
-0.397144
-0.838275
-0.717333
-0.330546
1.060182
0.320495
-0.028913
-0.743135
-0.265282
0.018178
0.725583
0.481052
0.724046
0.866554
-0.080067
0.954710
-0.673280
0.454954
-0.939518
-0.511017
0.648727
-0.806870
-0.771508
0.100415
-0.599846
-0.948006
0.471901
-0.850927
0.167722
-0.273226
-0.081734
0.849478
0.040688
0.165173
-0.476060
-0.056065
-0.287078
0.542877
0.183819
0.429189
-0.438761
-0.134570
-0.143680
-0.694437
-0.370658
0.953763
-0.805182
-0.036640
0.384764
-0.725123
0.473697
0.150118
-0.441799
0.738894
-0.828784
-0.100107
0.770002
0.513399
0.008335
0.016624
-0.607639
-1.109158
-0.128890
0.276115
0.283269
0.442900
-0.796931
0.977740
-0.014040
0.342916
0.353009
0.567477
-0.894296
-0.613161
0.807585
-0.257656
-0.683351
-0.978020
0.727058
0.818040
-0.612948
0.237460
-0.111159
-0.113210
-0.044532
-0.069662
0.746052
-0.195629
-0.404074
-0.281372
0.826003
-0.168648
-0.163276
-0.255037
-0.909513
-0.898458
-0.811954
-0.750417
-0.974639
0.194284
0.489858
0.555880
-0.303694
0.602860
0.918765
-0.476531
-0.633442
-0.647959
-0.364357
-0.869678
-0.909236
-0.035768
0.346896
-0.150114
0.810391
-0.618736
0.932413
0.520684
0.190644
-0.628596
-0.533435
0.064496
0.185776
0.284838
0.809643
0.232290
0.332459
1.017967
0.379232
0.535330
0.146796
-0.123613
0.067257
0.862680
-0.499399
0.102649
-0.523658
-0.096135
0.375374
0.053523
0.013300
0.336419
-1.022876
-0.560903
-0.661506
0.751756
-0.174631
-0.886028
0.499693
-0.936138
-0.531604
0.947808
0.128542
0.610199
0.178726
-0.041537
-0.260152
-0.311305
-0.089025
-0.873622
-0.799929
-0.922651
0.024119
0.383955
-0.969777
0.561426
-0.592712
-0.551897
-0.555596
0.652943
0.460995
0.536605
0.141550
0.402359
-1.019290
0.323109
0.380975
-0.145977
0.376252
-0.119725
-0.082020
0.800798
-0.154253
-0.953473
0.367271
-0.886279
-0.015279
-0.877693
-0.196598
0.920613
-0.728235
0.029401
-0.971781
0.320688
-0.651418
-0.971238
-0.104981
-0.294361
-0.524033
0.386118
-0.612161
0.975797
-0.062786
0.435714
0.491586
-0.058104
-0.271591
-0.127438
0.795919
-0.895340
0.752837
-0.286101
0.905458
-0.401416
-0.239574
0.272729
-0.287695
0.745147
0.395036
0.515708
0.665760
0.666801
-0.454892
0.693979
-0.012511
-0.106310
0.722741
0.882508
0.599329
-0.801293
0.268626
0.987168
-0.828102
-0.759641
0.438502
0.665896
0.065514
-0.856195
-0.569649
-0.056442
-0.743754
-0.708953
0.634551
-0.838583
-0.109899
-0.552768
0.512022
0.596938
-0.777174
-0.164221
0.118040
0.854555
-0.504027
0.658503
0.522689
0.483670
-0.439851
0.274008
0.423158
-0.843643
0.441706
-0.330881
-0.840999
0.618622
-0.241782
0.558777
0.176605
0.988078
0.717849
0.823117
-0.091172
0.973513
-0.884925
-0.381364
-0.787202
-0.000320
0.067064
0.575657
-0.392548
0.196158
-0.601775
0.720893
-0.000801
-0.105592
0.392041
-0.449358
-0.565147
0.945804
0.765238
0.778161
-0.882506
0.211962
-0.703981
-0.762232
-0.277328
0.218583
0.811813
-0.884562
0.183853
0.529080
0.939466
-0.832062
0.580461
-0.950955
-0.212230
0.644096
0.059558
0.761102
0.206543
0.662411
-0.094254
0.604978
0.395949
0.933699
-0.443838
-0.218395
-0.575071
-0.088697
-0.324301
-0.810301
-0.461935
-0.178500
0.163934
-0.055310
0.078461
-0.757491
-0.805795
-0.114223
-0.662312
0.473243
-0.495789
-0.711390
0.616197
0.924021
-0.672016
-0.707266
0.554907
0.382845
-0.971910
-0.238491
0.070845
-0.032057
-0.590576
-0.520610
-0.165138
-0.100137
0.197737
0.259322
0.659628
0.968786
0.216780
-0.691701
-0.190513
-0.128082
0.337661
0.879535
0.089726
0.627051
-0.145335
0.455598
0.055383
0.186738
0.734313
-0.433401
0.097548
-0.922120
-0.142659
-0.347485
0.506692
-0.082478
0.457112
-0.402433
0.811318
0.814802
0.002153
-0.354289
-0.436873
-0.704761
0.672792
-0.666639
-0.716773
0.380777
-0.273669
0.084301
-0.772006
-0.840823
0.053189
0.345904
0.741317
0.735716
-0.208393
-0.308282
-0.090757
-0.458497
0.256325
-0.993149
-0.334650
-0.854243
-0.297546
-0.807928
-0.010868
-0.892168
-0.285165
-0.200019
0.771096
0.812337
0.213451
-0.555171
-0.873221
0.377448
-0.137139
-0.598407
-0.266475
0.684377
0.575247
-0.010298
0.798643
-0.543702
-0.674289
0.434979
-0.821196
0.132901
-0.875296
0.088107
0.720371
0.413121
0.138046
-0.594249
0.484730
0.788766
-0.476981
-0.526607
0.745060
0.333203
0.041133
0.626761
0.164743
-0.254211
-0.843738
0.283108
-0.901463
0.114308
0.774054
-0.139755
-0.246227
0.177163
0.840052
-0.552564
0.620251
-0.818655
0.880422
0.799114
0.360213
-0.962782
-0.069691
0.100614
0.378797
0.982102
0.415940
-0.139353
0.736070
-0.942585
0.209905
0.509611
0.402039
-0.365617
0.243950
-0.441344
0.355002
0.443141
0.853241
0.487190
-0.517911
0.526437
-0.667855
0.164913
-0.303004
-0.807576
0.636201
-0.682901
-0.588218
0.520136
-0.897678
0.795146
0.514215
0.003562
-0.194521
-0.112475
-0.014614
-0.644504
0.623843
-0.332284
-0.583155
0.108792
-0.715193
0.811053
0.717563
0.548684
-0.618805
0.106244
-0.054282
-0.788539
-0.427295
0.416559
0.737898
-0.074968
-0.369007
-0.565256
0.150778
-0.729468
-0.261844
0.588976
0.775932
-0.131406
0.293985
0.284661
0.871878
-0.766460
-0.952143
-0.196476
-0.407030
0.946744
0.578719
0.001984
0.029924
0.883454
-0.175477
-0.218834
0.386031
0.182743
0.866682
-0.679500
0.394204
-0.540431
0.786580
0.131952
0.417923
-0.579089
0.553009
-0.404883
-0.323293
-0.680718
-0.906045
-0.552847
0.187598
0.522016
0.607484
0.005736
0.759491
0.930385
0.916740
-0.655370
0.851517
0.515387
0.358100
-0.084880
0.352733
-0.840352
0.675558
-0.272485
0.342392
0.562421
0.097536
-0.263555
-0.944689
-0.112546
0.854710
0.499650
0.293629
0.435835
-0.995371
0.964850
0.754839
-0.767339
-0.712327
-0.111303
0.758611
-0.829799
-0.998087
0.510270
-0.925026
0.938580
0.866385
0.960171
0.407860
0.201510
-0.145438
-0.250656
0.361159
-0.449699
0.526381
-0.296600
-0.853956
-0.372745
0.426158
-0.772229
0.499972
0.308984
0.637284
-0.211885
-0.255458
0.775989
-0.371365
-0.554360
-0.987416
0.191352
0.441817
0.763364
0.335941
0.463657
0.285120
0.444595
0.356131
0.128530
0.384038
-0.247259
-0.669959
-0.741219
0.551607
0.691049
-0.157596
0.081326
-0.619239
0.014864
0.693172
0.771809
0.157397
0.327850
0.143743
-0.076143
0.951286
0.835938
-0.298800
-0.337086
-0.612336
-0.291453
0.921298
0.849410
-0.455089
0.250579
0.266959
0.745526
-0.285272
-0.378150
-0.090547
-0.832480
0.359345
0.203861
-0.588653
-0.050029
-0.209282
0.278775
-0.965035
0.226962
-0.790209
0.863515
0.124946
0.491465
-0.112833
-0.783658
-0.583325
-0.177724
-0.843030
0.115219
0.645104
-0.435436
0.896754
0.559979
-0.632137
-0.704368
-0.129310
0.633582
-0.923444
0.654469
-0.769823
-0.085018
0.758759
0.683299
-0.985262
-0.804872
-0.343984
-0.048470
0.391446
-0.173640
-0.695333
0.725514
-0.614323
0.377266
0.218332
0.256668
0.698299
0.632352
-0.761143
0.875199
-0.179441
0.877539
-0.606348
-0.428720
0.497651
-0.239725
-0.097690
-0.562608
-0.631398
-0.092161
-0.971369
-0.307445
0.718716
0.812411
-0.601399
0.879528
0.925082
0.189995
-0.042766
0.440805
0.712157
0.209554
0.167672
-0.918343
-0.308488
-0.616651
0.498238
-0.590260
-0.911311
0.730673
-0.761172
-0.236786
0.668345
-0.368759
0.369892
0.235047
0.366260
-0.798825
0.609208
0.828639
0.004909
0.662861
-0.454993
-0.067309
0.498808
-0.073777
-0.124604
0.485911
0.910600
0.852903
-0.132190
0.747150
0.069616
-0.973743
0.892306
0.755788
-0.592134
0.498211
-0.794464
-0.564560
0.254695
-0.578166
0.164865
-0.135872
0.027086
-0.468433
-0.805793
-0.628506
-0.276502
0.747589
-0.674334
0.856865
0.413727
-0.147778
-0.210260
-0.131437
0.724524
0.685414
-0.748168
0.812634
0.472862
0.126941
0.535830
-0.437944
0.174551
0.544763
-0.591962
0.619123
-0.036343
-0.444888
-0.966324
-0.911367
-0.063685
0.277441
0.104950
-1.072359
0.814017
0.142223
-0.473611
-0.414635
-0.127169
-0.166396
-0.557586
-0.757414
0.631905
0.252432
0.008508
0.533939
-0.127608
0.267638
0.322619
-0.635169
-0.584068
-0.024924
0.017081
0.627189
-0.559478
0.366657
0.225426
0.274460
0.881138
0.338002
0.515282
-0.218306
-0.379548
-0.536703
-0.063411
-0.517681
0.588539
0.444526
0.067867
-0.582602
-0.775791
0.530560
-0.442658
-0.966376
-0.282463
0.573147
0.543609
0.609505
-0.137861
-0.017145
-0.935469
0.314777
0.878614
0.023149
-0.078920
-0.810583
-0.650824
-0.774594
0.616065
-0.805446
0.568416
-0.025588
0.203502
-0.763282
0.420729
-0.878361
-0.280780
-0.034705
0.512245
0.807366
0.280051
0.913964
0.272470
0.844691
0.923634
-0.990416
0.439192
0.583871
0.709284
-0.661963
-0.512591
0.715352
0.631928
-0.763696
-0.302129
-0.368092
-0.422090
0.011287
-0.137678
-0.962959
0.433094
-0.521412
-0.005528
-0.381855
-0.284511
-0.628771
-0.314136
0.454987
0.233883
-0.624381
0.196898
-0.478768
-0.734371
-0.511054
-0.612723
-0.694109
-0.411276
0.863175
0.810445
-0.760455
-0.819675
-0.831865
0.914266
0.891153
-0.443372
-0.423623
-0.471930
-0.022396
0.814917
0.438242
-0.002336
0.229561
0.917013
0.948164
0.793785
-0.347219
-0.783249
-0.342841
-0.957687
0.457932
0.008824
0.258789
-0.999483
0.391080
0.837928
-0.575500
0.617654
-0.631810
-0.733212
0.298380
-0.432896
-0.473987
0.618704
-0.554390
-0.577825
1.018398
0.249241
-0.001905
-0.020979
0.045707
-0.563480
0.932712
-0.778653
-0.626189
0.778234
-0.807358
-0.038863
-0.997717
-0.174153
0.023027
0.481569
0.951298
-0.627990
0.518792
0.263061
-0.848524
0.922405
-0.249003
-0.520966
-0.731907
-0.798435
0.010379
-0.200885
0.663335
0.680243
0.303753
0.636523
-0.068498
-0.814799
-0.451412
0.886766
-0.296150
-0.554645
-0.694779
0.034487
-0.761509
-0.500682
-0.927204
-0.658271
0.345624
0.156528
0.776823
0.237542
0.464826
0.301913
-0.554272
0.589559
0.271220
0.233937
-0.863993
0.610784
0.338706
0.228807
-0.588795
-0.012897
-0.085933
0.563698
-0.415101
0.737657
0.913245
0.148755
0.840583
-0.405713
0.593527
-0.853285
0.704031
0.909886
-0.359463
0.778022
-0.897548
0.996995
-0.159182
0.866065
0.229939
-0.745870
0.168187
0.688312
0.872443
-0.503817
-0.084137
0.949039
1.027116
-0.730098
0.182863
-0.712939
0.218278
-1.010982
-0.984895
0.818444
0.942836
0.905542
-0.033383
0.784330
-0.424914
-0.361988
0.925549
-0.719688
-0.601265
-0.423080
0.964602
-0.512024
-0.430684
-0.246095
-0.645749
0.811900
0.036789
0.579214
0.493826
-0.150180
0.995546
-0.574979
-0.196124
0.871402
-0.343803
0.878827
-0.677191
0.889742
-0.915994
-0.684895
0.707605
-0.972247
-0.704095
-0.247911
0.806587
-0.127814
0.240938
0.742970
0.058766
0.626462
-0.684709
-0.028147
-0.885351
-0.102748
0.754512
-0.474325
-0.297234
-0.268111
1.025038
-0.788075
0.586727
0.869323
-0.401781
-0.717309
0.905071
0.269684
-0.622322
-0.794929
0.158844
-0.537405
-0.404566
-0.055684
-0.515148
-0.107466
0.547242
-0.697728
0.670988
-0.225031
-0.959357
-0.321760
-0.598358
-0.631421
0.678847
-0.426934
0.259445
0.374250
0.082355
0.910495
-0.894990
-0.096192
-0.822553
0.421580
-0.124403
-0.310561
-0.944604
-0.191373
-1.030203
-0.661142
0.114960
0.284397
0.001181
0.679306
-0.935509
0.362781
-0.539423
0.598766
0.699379
-0.890881
-0.685503
0.694576
-0.235597
-0.281768
-0.825545
-0.569440
0.356721
0.340744
0.958067
-0.797310
0.373407
0.664567
0.144188
0.443913
0.532763
-0.845461
-0.805655
0.579549
0.060587
-0.558254
-0.753981
-0.878439
0.507675
0.032964
0.697193
0.559964
-0.346797
-0.841851
0.086945
-0.740212
-0.828451
0.476387
-1.040019
0.036860
-0.688693
-0.904629
0.621343
0.516608
0.531597
0.058647
0.767247
-0.096576
0.154123
0.104915
-0.612891
-0.195654
0.350496
-0.188922
-0.477133
-0.633286
-0.001966
-0.331769
-0.614992
-0.506738
0.933642
-0.921679
-0.959324
-0.586921
-0.802188
0.256355
-0.506690
-0.516041
-0.218391
-0.460389
0.520356
-0.025841
-0.269634
-0.245226
-0.396509
-0.718894
-0.715860
-0.488837
0.170068
0.465674
0.710961
0.664952
-0.702164
0.020058
-0.736000
-0.189193
0.282168
0.248823
0.508633
0.664224
0.742082
0.336235
0.774635
0.838790
0.682874
0.965776
0.043411
-0.803129
-0.550734
0.673481
-0.168169
0.737380
-0.241754
0.581399
-0.016641
0.446409
0.854092
0.242798
-0.947243
0.113513
-0.263344
0.718807
-0.393672
0.024597
-0.366116
-0.142882
0.850986
0.914059
-0.894000
0.405586
0.610374
0.891170
-0.238149
0.310862
0.678226
-0.630079
0.276170
-0.429902
-0.337858
0.493194
-0.645814
0.513175
0.721779
0.197104
0.086161
-0.319562
-0.261302
0.029606
0.951420
-0.253456
0.970982
-0.321819
-0.639630
-0.435900
0.718359
-0.007738
0.421277
0.615313
-0.061588
0.570364
0.040929
-0.525361
0.409800
0.727976
0.785033
-0.063512
-0.806754
-0.171039
0.617192
-0.125410
-0.186640
-0.943950
-0.620648
-0.489561
0.348338
0.554866
0.219060
1.042125
-0.587665
0.160585
-0.316312
-0.629894
0.854348
0.042066
-0.065735
0.618674
-0.933581
-0.601370
0.254017
-0.069316
0.917260
-0.779858
0.404854
0.175522
-0.956533
-0.042354
-0.777384
-0.744084
-0.722189
0.924479
0.122092
0.066471
-0.924286
0.590797
0.605093
0.379140
-0.026474
-0.185742
0.316284
0.372650
-1.009575
0.997980
0.742816
0.890740
0.072137
-0.279830
0.529444
0.067014
0.032546
-0.306963
-1.005182
-0.084991
0.031634
0.275537
-0.880987
0.086522
-0.383472
-0.550794
0.334311
-0.130831
-0.583385
-0.532119
0.969291
-0.583031
0.957820
0.559095
0.725160
-0.075258
-0.606421
0.065297
-0.702756
-0.577983
0.066790
-0.973832
-0.664092
-0.904212
-0.282731
0.775071
0.157316
0.749537
-0.397816
0.027805
-0.389193
0.637752
-0.421614
-0.162701
-0.283557
0.169302
0.306432
-0.937760
-0.927849
0.676940
-0.492854
-0.979287
-0.917340
-0.535033
0.599989
0.857342
0.389558
-0.973110
-0.074024
0.673116
-0.524677
0.978030
0.727400
-0.278907
-0.931668
-0.555608
-0.369760
0.101319
-0.859811
0.236359
-0.595832
-0.141525
-0.133721
-0.043058
0.715702
0.594208
-0.840076
-0.023972
0.633472
-0.788654
-0.358281
-0.859381
-0.747760
-0.226099
-0.394566
0.885551
-0.365420
0.981305
0.938857
0.545148
0.619311
-0.671058
0.657884
0.409660
0.179212
0.561537
0.801706
0.810806
-0.254152
-0.952020
0.041927
0.217048
-0.073615
0.981207
-0.832671
-0.404022
0.490910
-0.653193
0.570766
0.159779
-0.373091
-0.802761
0.264765
-0.135805
0.010158
0.766008
-0.225230
0.648407
0.802795
-0.370220
0.328934
0.548281
0.083000
-0.317381
-0.094406
-0.736435
-0.772021
-0.188009
-0.928285
0.133741
-0.120100
0.186630
-0.655634
0.760174
0.021804
-0.428172
-0.645087
-0.451887
-0.012314
0.900423
0.636865
0.551364
-0.808562
-0.202475
-0.559419
0.224343
-0.290394
0.132895
0.008128
-0.361423
0.886952
-0.967136
-0.865489
-0.028696
-0.300694
0.144796
0.232214
0.087199
0.976717
0.376916
-0.785483
-0.189494
-0.582487
-0.380985
-0.430559
0.474715
0.259895
-0.100902
0.951801
-0.815650
-0.106702
0.484561
0.760736
0.107483
-0.571840
-0.881140
-0.532796
0.263941
0.376032
0.171134
0.850171
0.264336
0.187821
-0.910628
-0.767015
-0.952959
0.254098
0.538186
0.127817
0.184703
-0.230931
0.402467
-1.006030
0.221981
-0.909466
-0.461845
-0.374331
0.287197
0.531030
-0.526635
0.496569
-0.523707
-0.827674
0.280837
0.562513
-0.345148
0.466098
0.754392
0.945683
-0.151615
0.155206
0.816629
-0.940068
-0.625107
0.828937
-0.736094
-0.427738
0.186643
0.740866
0.653108
-0.682105
-0.527730
0.033176
-0.703265
0.664148
0.155505
-0.193189
-0.620375
-0.574780
-0.492717
-0.084822
0.893423
0.001972
0.111213
0.187671
-0.620137
0.780816
-0.380154
-0.510920
0.634825
0.159398
0.477527
0.440428
0.317736
0.926800
0.399022
0.658260
-0.664778
-0.639354
0.328659
0.897717
-0.118800
0.896504
-0.087318
-0.040671
0.613501
-0.969914
-0.875865
0.960142
-0.531523
-0.252060
-0.071695
-0.594719
0.431753
1.084570
0.571435
-0.826245
0.706683
0.804420
-0.511993
0.575366
0.078270
1.019655
-0.224688
-0.483489
0.811957
-0.841620
-0.835520
-0.944557
-0.211237
0.616252
0.990916
0.349262
0.637863
-0.186284
-0.133014
0.323151
-0.089166
-0.036720
0.317985
0.240945
0.710273
-0.617284
0.677145
0.544139
-0.747334
-0.197577
0.430038
1.008324
-0.334813
0.911484
0.224507
0.875376
0.840212
-1.013744
-0.521932
0.551650
-0.514273
-0.267809
0.601132
0.050285
-0.532349
0.470353
-0.052264
-0.874720
-0.607916
0.995078
0.443029
0.255833
-0.057939
-0.236120
-0.451139
0.070716
-0.066196
0.873666
-0.701577
0.099389
-0.562910
0.765795
-0.159546
0.319425
0.719368
-0.849993
0.291838
0.407713
-0.584835
0.824849
-0.029030
-0.270450
-0.321631
-0.549287
-0.848530
0.195139
1.017403
0.306722
0.358648
-0.675069
0.057682
-0.232370
0.597778
-0.526285
0.471820
0.725322
0.262542
-0.865702
0.354367
0.556000
0.159601
-0.829598
0.329940
-0.849111
0.599412
-0.118943
-0.537981
-0.052466
-0.799903
-0.230189
-0.105477
-0.008583
0.784811
0.611381
0.581208
-0.901686
-0.226979
0.466360
0.106682
-0.854873
0.809693
-0.444417
-0.183209
0.034293
-0.075002
-0.884718
-0.249322
-0.880772
-0.603291
-0.653562
0.700557
0.494690
-0.377363
-0.119305
0.948208
-0.704834
0.699914
-0.789876
0.331774
0.701723
0.228187
-0.715735
-0.211173
0.173962
0.864551
-0.830366
0.120038
-0.309277
0.697319
-0.421462
-0.196881
0.202095
0.274330
0.465833
-0.745025
-0.835749
0.620426
0.091703
-0.598516
0.785442
0.544911
1.025601
0.596391
-0.772907
-0.102679
0.241012
-0.421100
-0.684377
0.611844
0.987097
0.997946
-0.029368
-0.769628
-0.409092
-0.812626
-0.914642
0.041641
0.465489
-0.129966
-0.631946
-0.792972
0.433917
0.591471
0.439663
-0.143113
0.904105
0.610450
-0.625276
0.140815
-0.897157
-0.503452
-0.230969
1.044168
0.868235
-0.005434
-0.194098
0.134687
0.656237
0.365854
-0.354699
0.630377
0.050947
0.739595
1.050465
0.741596
-1.250695
1.022695
-0.483768
0.729665
-0.471132
-0.108731
-0.679797
-1.103573
-0.494173
0.487397
-0.135659
-0.496218
0.197615
0.674999
0.570829
0.375325
0.473074
-0.491236
0.244842
0.648925
0.238148
-0.757820
-0.188768
0.211043
0.127436
0.611127
-0.160149
-0.664557
0.484768
-0.538054
0.891641
-1.024326
-0.579953
-0.540713
0.916960
-0.003460
0.343166
0.793770
0.052458
-1.001673
0.164447
-0.648811
-0.566597
-0.196873
0.465095
-0.522390
0.982873
0.660257
-0.365913
0.392860
0.259466
-0.545463
0.321224
-0.820129
0.614284
-0.560272
-0.742234
-0.861580
-0.270608
-0.944794
-0.533791
-0.456355
-0.856704
-0.029311
-0.103360
1.094520
-0.863755
-0.317968
0.643649
0.274730
-0.481805
0.214483
0.488523
0.574752
0.686128
0.339862
0.801249
0.812235
-0.208622
-0.261144
-0.103445
-0.648345
0.281582
-0.823379
-0.157677
-0.494045
-0.314873
0.207570
-0.862194
0.271991
0.515166
0.056903
0.558693
0.593750
-0.900588
-0.104807
0.546827
-0.738848
0.302790
0.357756
0.402137
-0.769000
-0.681037
-0.067571
0.752723
-0.610507
-0.846611
0.376952
0.906581
0.272532
-1.018200
-0.192283
-0.998247
-0.019641
0.091200
-0.086160
0.120064
0.529128
-0.555226
-1.093094
-0.495873
0.680965
0.417887
-0.520958
0.462958
0.292550
0.044393
0.038102
0.541348
-0.284770
-0.482415
-0.282318
-0.389127
-0.005357
0.719967
-0.946659
0.074261
-0.854066
0.366447
0.010133
0.805131
0.348632
0.919151
0.668518
-0.761328
0.019959
-0.259832
-0.998448
-0.708264
0.053514
-0.470913
0.378044
-0.128889
0.351301
0.544279
-0.832859
-0.234045
-0.040719
0.202555
-1.013238
0.163712
0.408394
0.053761
0.803322
-0.961398
-0.175029
0.901937
0.337291
0.354995
0.305829
-0.838187
-0.269433
-0.606153
-0.714680
-0.134244
-0.302711
-0.123168
0.437047
0.541380
0.800772
-0.423201
0.589207
-0.131756
0.312276
0.113878
-0.272383
0.284224
0.590530
0.229185
-0.645828
0.919497
-0.673648
0.338148
-0.196104
-0.813392
0.509078
1.054609
-0.734576
-0.279205
-0.149563
0.329719
0.074604
-0.709330
-0.911551
-0.059174
-0.177297
0.834086
-0.637441
-0.646396
0.187075
0.742003
-0.362366
-0.497278
-0.054601
0.561162
0.671272
0.089399
0.143846
0.408452
-1.016618
-0.017240
0.120805
-0.536175
-0.521474
-0.287770
-0.169721
-0.881004
-0.933312
-0.305227
-0.135807
0.660710
-0.744534
0.485410
0.411231
-0.172634
-0.244073
-0.757838
-0.378752
-0.294235
-0.716815
0.558859
0.016308
-0.067424
-0.561844
0.061339
-0.108217
-0.938865
-0.979008
0.477149
0.654370
-0.718665
-0.313669
0.516754
-0.468923
0.331993
0.616402
0.348894
0.296753
-1.027164
-0.777294
0.591064
0.275328
-0.535381
0.549407
-0.144161
0.549891
-0.931023
-0.090552
-1.088375
0.191996
0.007457
0.784512
0.246958
1.135891
-0.833844
-0.376921
-0.556238
-0.455288
-0.108768
-0.941343
-0.284925
0.092468
-0.419863
-1.098463
0.720541
0.829966
1.064895
0.001512
-0.068517
0.967905
0.091079
0.000950
0.427035
1.097356
-0.625032
-0.915818
0.339883
-0.300855
-0.146345
0.717821
0.310682
-1.072438
0.402336
0.047866
0.914741
0.755245
0.408232
-0.353306
-0.247265
-0.478652
-0.640456
0.310618
0.577644
-0.063581
0.806670
0.267107
-0.126646
0.739173
-0.542501
0.969843
0.822029
0.844810
-0.015125
0.046696
0.667191
0.489574
0.137571
0.233011
0.799818
-0.930542
-0.272981
0.412863
-0.822130
-0.791135
-0.823669
-0.628033
-0.711178
-0.877151
-0.460453
-0.061590
-0.310165
-0.173211
-0.193331
-0.776524
-0.834027
-0.595629
0.395296
0.136189
-0.665542
1.074326
0.188841
1.032773
0.622963
-0.861403
0.168229
0.309462
0.181696
-0.817726
-0.369045
0.277671
-0.550627
0.220352
-0.604336
-0.052608
0.701356
0.071150
-0.190918
-0.978103
0.195784
0.284889
0.305551
0.803276
-0.358309
0.944289
-1.111520
-0.195475
-0.390906
0.751186
-1.060055
-0.140870
0.460799
0.095748
-0.116708
0.187885
0.077411
0.808939
-0.330722
-0.539042
-0.774615
-0.209528
0.541086
-0.249774
-0.644117
-0.684317
0.174306
0.947809
0.317782
-1.166594
-0.878781
-0.666681
0.603761
0.326227
-0.847391
-0.738802
0.396286
-0.671213
0.150157
0.760544
0.856264
0.241925
-0.501354
0.548214
-0.843315
0.324516
-0.101973
0.428524
0.350672
0.086122
0.775173
0.632281
-0.929771
0.551172
-0.987818
-0.703514
1.023286
0.366862
-0.737598
-0.000160
0.528827
-0.765314
0.362644
0.266978
0.659064
0.741987
0.557726
-0.284371
-1.149119
-0.350307
-0.499158
-0.884011
0.743260
0.074864
0.732629
-0.837694
-0.407790
-0.750072
0.473487
0.922638
0.513199
0.407453
0.154189
0.472915
0.137192
0.325014
0.768772
-0.340687
-0.318875
-1.031718
0.702021
-0.698230
-0.515038
0.347762
0.561648
0.779259
-0.088250
0.072522
-0.504916
0.324363
0.795804
0.062188
0.530149
0.741341
-0.692074
-0.069790
0.774884
-0.109866
0.279501
0.444490
-0.378693
-0.325698
-0.257672
0.859599
-0.746103
0.700917
0.137689
0.892585
-0.498184
0.896272
1.122583
-0.695565
-0.848744
-0.739592
0.681522
0.709654
-0.879180
-0.050710
-0.153990
-0.347865
-0.632883
-0.228343
0.914100
0.575055
-0.576317
-0.715626
-0.451656
-0.580529
0.052990
0.827286
0.750185
0.694315
-0.364820
-0.384382
0.445322
-0.273986
-0.683802
-0.377388
-0.141354
-0.200441
-0.553897
-0.302231
0.134185
-0.425263
0.033292
0.120772
-0.632793
0.015212
0.761357
0.252457
0.774039
-0.936578
-0.984103
0.789770
0.503787
-0.429384
-1.036636
-0.822237
-0.113219
-0.097935
-1.069321
-0.373348
-0.353053
-0.347552
0.382550
-0.869279
0.465473
0.608875
-0.223807
-0.663264
-0.243208
0.032194
-0.185121
1.002644
0.779070
0.835343
-0.343923
-0.888670
0.002339
-0.469907
0.363540
0.067179
-0.448804
0.451427
-0.203821
-0.732888
-1.135221
-0.293373
-0.577555
-0.167936
0.881823
-0.417982
0.728706
-0.409408
0.341618
0.011810
-0.254452
-0.115642
0.059428
0.363339
-0.104879
0.723994
-0.415187
0.837497
0.231145
-0.676398
0.824627
-1.024394
-0.561839
0.113389
-0.491188
0.870552
-0.949742
0.212282
0.147959
-0.232454
0.428743
0.148210
0.748600
-0.990800
-0.758368
0.693652
-0.299731
-1.106819
-0.686238
1.084542
0.355163
-0.066895
-0.328449
-0.631557
-0.657705
0.635258
0.604615
0.004967
0.704784
-0.101130
0.334263
0.784306
-0.141619
0.777858
-0.382111
0.530554
0.463013
-0.277943
-0.310951
-0.224965
0.847983
-0.714774
-0.815293
0.583017
-0.594855
-0.587457
0.332348
0.068507
-0.346519
0.410794
-0.103429
0.913033
-0.501644
0.749971
0.931948
-0.037706
0.643672
0.509809
0.911951
0.639707
-0.566539
0.247302
0.084488
0.376106
0.175908
-1.442011
-0.110460
-0.631600
-0.198412
0.807334
0.476895
-0.330734
-0.948227
0.671604
-0.643487
-0.436261
-0.671326
0.406542
0.387526
0.091196
0.157621
-0.543973
-0.447812
0.656240
-0.683711
-0.549085
-0.364826
-0.749302
-1.178308
-0.273215
0.341737
-0.628475
0.757618
-0.801529
0.714789
-0.474488
-0.345364
-0.080359
0.419354
0.559309
-0.317491
0.017804
-0.560380
-0.219289
-0.001886
-0.492820
0.040754
0.346073
-0.907415
-0.416864
-0.912314
0.426051
0.103364
-0.212724
-0.029321
0.687920
-0.109219
0.545934
0.420881
0.275406
-0.841954
-0.220312
0.668211
-1.226121
0.845173
0.852629
-0.011596
-0.400251
-0.591827
-0.896706
-0.580238
0.517400
0.603873
-0.658277
0.811032
-0.532840
0.299808
0.113280
0.529605
0.688879
0.581595
0.878812
-0.130969
-0.165083
-0.668668
0.969552
-0.653967
0.705830
0.614359
-0.955913
0.214126
0.791539
0.274760
-0.004613
0.894606
0.325704
-0.416368
-0.207468
-0.959257
0.601918
0.298577
-0.744087
-0.571183
-0.270868
0.012755
-0.497599
0.314863
-0.495128
0.318786
0.267384
-1.067316
0.144141
-0.200516
-0.080786
-0.812142
0.305084
-0.069442
-0.338805
0.084749
-0.554043
-0.367711
-0.679425
-0.486834
-0.529044
0.149313
-0.671578
0.879696
1.245063
0.490852
0.990336
0.171913
-0.269481
-0.843703
0.612250
0.662164
0.653078
-1.139389
0.179375
-1.102937
0.307808
0.923281
-1.119087
-0.322895
-0.350042
-0.231073
-0.177143
-0.859638
0.784639
0.384382
0.500890
-0.218121
-0.441729
0.503403
-0.064573
0.105427
0.167658
0.696826
-0.239352
-0.380879
-0.045206
-0.185952
0.940356
0.730833
0.335636
0.387730
0.555612
-0.638497
0.365961
-0.711157
-0.695806
0.221087
-0.706089
-0.303082
0.731837
-0.074578
1.054172
-0.527549
0.372555
1.031496
-0.657790
-0.665816
-0.859354
0.021344
-0.506800
0.459416
0.907107
0.366963
-0.084964
-0.125417
-1.095441
0.997361
0.639891
-1.231599
0.816519
-0.656724
0.399719
0.358802
0.264966
0.345665
0.457783
-0.970831
-0.639893
0.546533
0.189924
-0.921014
0.195518
0.105281
0.041270
-0.985773
-0.738164
0.290369
-0.275868
-0.031296
-0.847114
0.007039
-0.920109
1.142730
-0.824126
-0.317369
-0.323688
-1.157024
-0.076685
-0.940208
-0.953182
-0.126347
-0.267948
0.862321
0.884832
-1.203277
0.172128
0.340359
-0.979074
0.252888
0.313641
0.599886
0.842729
0.781424
-1.096556
-0.415892
0.934315
-0.225370
0.827315
-0.213751
0.245136
1.064970
0.506915
0.249491
0.661208
0.196745
-0.635238
-0.790966
0.439390
0.632813
-0.621896
0.758838
-0.846735
-0.074932
0.810105
-0.904792
0.076195
-0.523686
0.559388
1.151770
-0.669910
-0.490700
0.047915
0.748555
-0.675610
0.439226
-0.628192
-0.704046
0.808271
-0.658587
-0.212219
-0.011243
0.795566
-1.197041
-0.554267
0.416654
0.414343
0.159197
0.790384
0.193387
-0.580883
-1.020449
0.221849
-0.272929
0.170977
-0.590048
-0.036959
0.365474
0.488854
-0.753858
-0.165424
0.395152
-0.376596
-0.595070
0.269532
-0.030744
0.498724
0.558497
0.106225
0.424065
0.570092
0.513353
-0.439458
0.405575
0.623984
0.267460
-0.157303
0.268655
-1.186953
-0.625916
-0.125618
-0.137329
-0.545492
0.319572
0.416132
-0.085061
-0.553708
-0.753526
0.661060
0.530888
-0.678798
0.083980
0.000288
-0.324654
0.161267
-0.845532
0.772688
-0.179257
0.743657
-0.533452
-0.648034
0.344822
-0.825140
0.061868
-0.316876
-0.735654
-1.220647
0.461438
0.864951
-0.703475
-0.629149
-1.038203
-0.081072
1.016534
1.060476
-0.803945
-0.554720
-0.813400
-0.740731
-0.406985
0.710895
-0.877590
0.529065
-0.315968
0.201987
-0.064853
-0.131170
-0.197669
0.870711
-0.594968
0.522592
-0.682127
-1.137729
-0.843865
-0.355465
-0.296238
-0.607887
-0.039330
-0.454105
0.619901
0.142996
0.693378
-0.702015
0.817276
0.145174
1.238140
-0.997645
-0.615257
-0.856390
-0.934834
-0.311558
0.824813
-0.390653
-0.436235
-0.545146
-1.125704
0.440010
0.083869
-0.038757
0.227920
-1.140377
-0.139082
-0.269014
-1.053627
-0.055345
0.921282
-0.129568
-0.111051
-0.136449
1.090662
0.243107
0.769197
0.155732
0.429295
0.761573
0.094447
0.205475
0.663514
-0.079157
0.570197
-0.979566
0.829715
-0.019752
-0.564154
-0.660798
0.269523
-0.343924
0.624467
-0.065393
1.003772
-0.823000
-0.022634
-0.275976
0.610581
0.319797
0.475241
0.396945
-0.464558
-0.088857
-0.820843
-0.744509
1.102723
1.028934
0.963574
0.379370
0.648496
-0.238094
-0.671843
0.486749
0.550110
0.347686
0.280683
0.505419
-0.702361
-0.782212
0.804328
-0.995283
0.189582
-0.187111
0.184918
-0.164595
0.180919
-0.784156
0.686429
-0.068737
0.720459
0.478135
-0.857803
0.874093
-0.580841
-0.851844
-0.545069
-0.635366
-0.971947
-0.928418
0.099854
0.772469
-0.373582
0.264408
0.114466
-0.519994
-0.459730
-0.200470
0.652669
0.266410
-0.012762
-0.156020
0.502846
-1.110554
-1.012863
-0.273473
0.139250
0.522895
-0.049438
0.033263
-0.739428
-0.394265
-0.454370
-0.690869
-0.389035
-0.231778
-0.590488
-0.114407
-0.540588
-0.618433
-0.031374
0.576920
-0.764480
0.414195
-0.141987
0.629751
0.906006
0.676335
-0.654288
0.064177
0.079762
0.370917
-0.711021
-0.435079
0.557193
-0.623014
0.482224
-0.159001
0.980720
-0.727073
0.934878
0.910350
0.122596
-0.618309
-1.111158
0.676842
-0.355400
-0.618067
-0.424979
0.248162
-0.135476
0.227552
-0.183724
0.156564
-0.028554
0.788145
-0.421861
-0.711839
0.565223
-0.222246
0.477501
-0.509877
-0.681795
0.778482
0.132132
-0.941297
1.162880
-0.476662
0.021538
0.504487
0.122992
-0.044694
-0.076695
-0.711254
-0.472286
0.265641
0.821763
0.397759
0.706034
-0.818601
-0.411679
-0.317065
0.242189
0.457681
0.807678
-0.962840
0.258763
-0.614969
-0.717472
-0.311864
0.371925
0.754821
0.434606
0.958158
0.515582
-0.641331
1.162862
0.203765
0.130659
-0.197911
-0.552642
-0.738491
0.206883
0.847465
-0.560959
-0.901182
0.281502
-1.097078
0.432337
0.179380
-0.985141
-0.922983
0.804346
0.578672
0.561808
0.509846
0.561090
-0.162036
0.835841
0.977523
0.649324
0.402346
0.846967
-0.300462
0.413290
0.013392
0.276934
0.219058
-1.048134
-0.515750
0.686842
-0.307798
-0.484706
0.215877
-0.219076
-0.553317
0.260192
-0.690979
-0.548379
-0.212938
0.439652
-0.109285
-0.098137
0.109864
-0.562161
-0.451637
-0.392540
-0.876003
0.551160
-0.473404
1.203247
-0.204184
0.893655
0.640124
0.697588
0.124748
-0.595948
0.068236
-0.924736
-0.309561
0.222472
0.949613
0.697503
0.411124
0.104740
-0.296381
-1.089313
-0.554392
0.027722
-0.094431
0.342376
-0.725595
0.725181
-0.742186
0.477257
-0.793899
-0.174070
-0.919851
-0.603619
-0.989232
-0.292616
-0.749788
0.046593
-0.614342
0.595747
-0.326813
0.470910
-0.550403
0.485767
0.472968
0.312056
-0.413574
0.386081
0.221767
-0.786786
-0.418289
0.946697
-0.667803
0.001813
-0.149484
0.016323
-0.764143
0.266270
-0.043048
-0.485885
-0.218283
0.149005
0.202674
-0.093351
0.529166
0.546149
0.443900
0.639790
-0.497649
0.886718
0.448687
0.062319
0.150032
-1.035432
-0.596398
-0.421530
0.499936
0.121027
-0.988604
-0.258883
0.149075
-0.480368
-0.360270
0.254828
0.525771
0.654589
-0.311081
-1.058136
0.004201
0.673209
-0.483665
0.803966
-0.037740
-0.852979
-0.298265
-0.707561
0.772698
-0.967961
0.840548
0.904981
0.779742
0.398595
-0.075803
-0.091908
0.650235
0.325085
0.551341
0.088726
-0.588173
0.405718
0.743673
0.474845
-1.005718
-0.392867
-0.004179
0.779462
-0.667657
0.749975
0.730022
0.360781
0.494400
-0.271636
0.039447
-0.846346
-0.113309
0.720322
-0.545711
-0.836105
0.712081
-0.553376
-0.842739
0.495053
-0.868357
0.084570
-0.528005
0.651569
-0.438071
0.849316
-0.338597
-0.076895
0.390507
-0.320497
-0.444038
0.646147
0.349864
0.660835
0.348451
0.711726
0.453465
0.528646
-0.053698
-0.349484
1.196637
-0.917847
-0.101535
-0.334004
0.823017
0.553956
-0.094210
0.458133
-0.720601
0.061079
0.048034
-0.889944
-0.827262
0.425903
0.615232
-0.265034
0.305592
-0.229167
0.908186
-0.141054
0.471624
-0.574525
-0.386421
-0.069733
-0.860868
-0.672570
-0.692641
0.394613
0.750087
0.618567
-0.845229
0.806157
0.586908
0.180279
-0.842522
0.416446
0.227495
-0.015964
-0.085839
-0.181898
-0.843893
-0.987635
0.132526
-0.586660
0.286029
0.323439
0.266373
-0.060458
-0.834177
0.182498
-1.051795
0.842722
0.725058
-0.175893
-0.371771
0.322728
-0.007408
0.154159
-0.014576
-0.375397
-0.291655
0.323063
-0.754975
-0.614316
-0.046397
-0.655480
1.085784
0.430077
0.323169
-0.589929
-0.064205
0.756074
-0.396459
-0.723729
-0.954699
-0.684215
0.827610
0.511209
0.152740
1.202947
-0.427478
0.333695
0.437213
-1.240964
-0.809948
-0.745160
0.404120
0.005203
0.425333
-0.140195
0.530744
-0.932741
-0.793056
1.282443
-0.452881
-0.167542
-0.758135
-0.717171
-0.697667
0.595319
-0.250492
0.167268
0.393113
0.660396
0.590407
0.596203
0.785615
0.502546
0.185424
0.288500
0.073391
0.027934
-0.336540
0.167641
0.486642
-0.219001
0.307692
0.218287
0.468682
-0.560559
0.816371
0.550619
-0.399080
-1.211382
0.448218
0.598489
-0.520277
0.751387
0.843540
-0.028820
0.194933
-0.704650
-0.212360
0.013388
-0.694398
-0.673029
0.536391
-0.952147
0.583975
0.792972
0.593181
-0.149735
0.341010
-0.747689
0.461525
-0.198521
-0.427329
-0.327947
0.564596
-0.803311
0.553565
0.491002
-0.694114
-0.270759
0.444845
0.832700
-0.828165
-0.187099
0.279832
0.475706
-0.397613
-0.249259
-0.594368
0.581597
-0.173918
-0.132989
0.583761
0.199061
0.349530
0.265847
0.517253
0.074793
0.639980
-0.104144
-0.163279
0.282655
0.742326
-0.101944
-0.766444
0.519197
-0.781263
-0.334655
0.184749
-1.089935
0.219806
0.433011
0.486207
0.137449
-0.278822
-0.194837
0.044083
0.266122
-0.211037
0.894476
-0.583718
0.076219
-0.148524
0.855563
-0.176739
1.292255
-0.066881
-0.466310
-0.397961
-0.166690
0.238855
0.478779
-0.521635
0.232529
-0.004992
0.817219
-0.003201
-0.381168
-0.840016
-0.415867
0.243387
0.271859
-0.438994
-0.675304
-0.385587
0.292806
-0.712934
-0.637292
-0.679878
-0.600115
-0.654673
-0.004808
-1.031746
-0.111290
-0.577252
-0.201080
-0.292030
0.371363
0.236683
0.468885
-0.302885
0.117769
-0.393648
0.812424
-0.365975
0.623076
-0.060530
0.698786
-0.622139
0.247027
-0.184510
0.099120
0.292532
-0.031218
-0.523872
-0.959082
-0.653224
-0.761130
-0.637652
1.124285
0.396270
-0.652285
0.105005
-0.065449
0.887608
0.686631
-0.657579
-0.826175
0.567116
-1.131839
0.874750
-0.761428
0.517944
-0.816073
0.301015
-1.069278
0.908671
0.459040
-0.885906
-0.761267
-0.116307
-0.562189
-0.297712
-0.478379
-0.789288
2.375099
-0.488662
1.237530
-0.623566
-0.364569
-0.023967
0.025955
0.562822
-0.859744
-0.359914
-0.876241
-0.900296
-0.157572
-0.121691
0.402960
0.371617
0.766238
1.944706
-0.533955
-0.816000
-1.076411
-0.100710
1.084279
0.399001
-0.453812
-1.926356
0.184218
0.890833
2.270249
0.507653
2.448724
0.875469
0.893498
-0.673226
-1.193665
0.069413
0.552926
0.565535
0.052607
0.773106
-1.389938
0.947926
0.543205
0.371838
0.972061
1.074650
-0.680561
0.883765
0.156370
0.370342
1.017910
0.151217
-1.189065
-0.217644
0.439304
0.128733
0.321306
-0.620919
1.667246
-0.837809
1.156973
-0.127742
0.634808
1.010688
-0.079027
0.780434
1.230775
0.237123
0.321296
0.664142
-0.355335
0.587346
-0.286377
0.687134
-0.464025
-0.012107
0.846871
0.538603
-0.408246
-0.021641
-0.753788
-1.333751
0.251587
-0.040353
1.435545
-0.587139
1.102284
-0.220972
0.075578
-0.057207
0.094412
-0.149531
0.672265
-0.564581
-0.538130
0.192082
-0.491353
-0.749023
-0.817300
0.885487
0.978398
-0.385682
0.098428
-0.515586
0.543191
-0.661765
0.413929
0.227415
0.825332
-0.713039
-0.002945
-0.770542
-0.428623
-0.862577
0.286416
0.429250
-0.364674
0.063220
-0.269799
0.251770
-1.282487
0.213274
0.964150
-1.161267
-0.885858
-0.842552
0.480408
-0.468585
-0.303018
0.284063
-0.671577
-0.915152
-0.093909
0.976556
-0.504852
-0.560631
-0.596922
-1.002831
-0.708687
0.799085
-0.977087
0.339667
-0.588216
0.022106
0.525079
0.207879
0.006600
0.605447
-1.029627
0.075151
-0.779457
-0.715312
-0.385727
-0.509907
-0.407152
-0.387417
0.123583
0.559415
0.175036
0.472608
0.744451
0.825412
0.635438
-0.358525
1.058525
-0.738082
0.199291
0.721113
-1.109608
0.268317
0.989075
-0.687621
-0.619219
0.634077
0.904153
0.424572
-0.283874
-0.649987
-0.553065
0.080239
0.614738
0.589178
1.068486
-0.625812
-0.568306
-0.729461
-0.160483
0.360682
-0.807875
-0.449076
-0.169492
1.072404
-0.429672
-0.151208
-0.375065
0.962904
-0.392346
0.790508
0.619787
-0.219797
-0.577779
0.194298
0.696778
0.014605
-0.063238
0.180036
-0.720450
-1.079237
0.321821
0.493058
0.871603
-0.070955
0.023978
0.155566
0.855674
0.898203
0.790134
0.144259
0.482835
-1.032388
0.892449
-0.405346
1.243174
0.973376
-0.269945
-0.342228
0.554817
0.467241
0.892787
0.239149
-0.000024
-0.593461
-0.345898
-0.564233
0.300638
-1.035190
0.255518
0.635980
-0.737023
-0.509943
0.277814
0.664191
-0.585471
-0.326918
0.691692
-0.723220
-0.097093
0.123914
0.617793
-0.820063
0.494961
-0.357018
-0.811817
0.456211
-0.438900
0.443081
0.839083
-0.949013
0.264463
0.540347
0.414244
-0.838675
1.003784
-0.817287
-0.816693
0.172211
-0.791387
0.443217
0.153060
-0.397063
-0.377535
-0.552564
-0.190104
-0.028356
0.060077
-0.857811
0.393307
0.579091
0.623546
-0.256546
0.170889
-0.087755
0.355907
-0.937993
-0.874109
0.899216
0.697000
0.823353
-0.974825
0.305889
0.146538
0.521701
0.433666
0.015118
0.756009
0.904497
-0.553986
-0.858094
0.494725
0.354101
-0.064810
-0.718153
0.981120
0.419995
0.445647
-0.209595
0.717356
-0.559903
-0.807370
0.229347
-0.210489
-1.119327
1.069250
-0.756967
-0.827442
0.975756
-0.860390
1.110207
0.538352
-0.833871
0.198119
-0.302964
0.640866
-0.438936
0.797738
0.524729
-0.695600
-0.822704
0.886529
1.004449
0.852271
-0.492631
-0.594252
0.460849
-0.786764
0.410131
-0.912051
0.954285
0.498460
-0.457893
-0.101446
-0.467492
-0.510208
-0.276089
-0.225611
0.015576
-0.511646
-0.072888
-0.063898
-0.820711
0.003735
-0.883164
-0.013747
-0.161776
-0.446263
-0.211824
-0.346357
0.025932
0.279771
-0.808494
0.075934
-0.247360
-0.039818
0.104339
-0.968524
0.105427
-0.911642
-0.606238
-0.058561
0.918296
-0.022225
0.831674
-0.597814
0.926417
-0.395398
0.194548
-0.151320
0.176109
-0.878944
0.761664
0.356724
0.233628
0.643112
-0.606209
-0.745685
-0.658653
0.425203
-0.477271
0.397189
-0.649512
-0.042007
-0.730022
-0.068931
0.903690
0.046476
0.319179
-0.023131
0.280619
0.865588
0.843147
0.197294
-0.063000
0.654971
0.596414
-0.174574
-0.619892
-0.149728
0.526352
0.358042
-0.064397
0.249048
-0.048568
-0.881852
-0.055414
0.300149
-0.609919
0.147683
-0.302564
0.076571
-0.587834
-0.170719
1.015815
-0.551429
1.002016
0.842596
0.451138
0.301585
-0.261015
-0.259569
-0.022206
-0.415132
0.871006
0.963376
-0.593307
0.505028
-0.258749
-0.575655
-0.745015
-0.559138
-0.921990
0.123136
0.726416
-0.023303
0.482599
-0.383673
-0.474226
0.933930
0.877757
-0.010547
0.124467
-0.751134
0.998472
-0.169414
-0.379958
1.028333
-0.345147
-0.907479
0.204466
0.371079
-0.202583
-0.850726
-0.870875
-0.415756
-1.000076
-0.655350
-0.899619
-0.000339
-0.046022
-0.636474
0.464306
0.107059
0.676485
0.076556
-0.796886
0.177962
0.779792
-0.599737
0.231908
0.612194
0.647279
-1.003306
0.873208
0.726895
-0.146382
-0.444717
0.690322
0.510696
-0.452123
-0.218062
0.148897
0.289402
-0.432992
0.046564
-0.942931
0.083686
0.606212
-0.846548
-0.859730
-0.482364
-0.408426
0.578243
0.729388
-0.633585
-0.246243
0.633617
0.465418
-0.572025
-0.562109
-0.570175
-0.776987
-0.887519
-0.663827
-0.777986
0.795217
0.254239
-0.395850
0.118978
0.017042
0.318820
-1.094350
-1.035648
-0.244328
-0.049410
0.330945
-0.383891
-0.813710
-0.191212
-0.014964
-0.634607
0.473307
0.511898
0.799431
-0.083812
0.666689
-0.348282
-0.072082
0.334128
0.271653
0.264757
0.443869
0.589313
0.431257
0.683736
0.767643
-0.485640
0.315590
-0.512981
-0.834236
-0.680935
0.737454
-0.870427
-0.682254
-0.821914
0.218325
0.524137
0.226722
0.301263
-0.430993
0.753514
0.773644
0.739510
0.457104
0.370257
0.264031
-0.157957
-0.934576
0.797053
-0.746432
0.579157
-0.107506
0.572603
-0.059768
-0.975818
0.575927
-0.330961
-0.271681
-0.422823
-0.000066
-0.100319
-0.085929
-0.033288
0.393051
0.370010
0.338147
-0.374542
-0.125520
-0.531699
0.791150
-0.114538
-0.796410
0.424705
0.273886
0.696363
0.067094
-0.330906
-0.533307
0.444311
0.556878
-0.151716
-0.306310
-0.215972
-0.404328
0.660500
-0.556654
0.450277
-0.569190
0.624479
-0.681398
0.768358
-0.080467
0.247968
-0.376719
-0.579183
-0.413937
0.974554
-0.321332
-0.175252
0.669098
-0.507255
-0.075044
-0.527416
1.132363
1.305876
0.398213
-0.287378
1.066158
-0.802594
-0.981730
0.327092
0.134840
-0.429887
-1.158574
0.271706
-0.560408
-0.514154
-0.170650
-0.637316
0.041440
0.431016
1.283149
0.590558
0.008475
-0.710986
1.022860
0.142322
0.576845
-0.963352
-0.056500
0.875715
-0.166844
0.473412
0.823713
-0.230647
-0.103066
0.242012
0.343223
0.053905
-0.873893
0.489307
-0.455357
0.621521
-0.875793
-0.016323
-0.372072
-0.710928
-0.686388
0.450516
0.285651
0.466963
0.030389
0.065822
-0.399883
0.459755
0.074387
-0.538048
-0.088768
0.314126
0.161321
0.249469
-0.348350
0.845328
-0.470617
-0.483236
-0.804177
0.761559
-0.431930
0.859141
-0.188883
-0.629894
0.481847
0.236732
0.756650
0.662991
-0.389717
-0.791146
-0.841523
-0.273156
0.395351
0.034930
-1.104988
-0.059197
-1.163098
0.064755
-0.584359
0.504437
0.983901
-0.178266
-0.688529
-0.067337
-0.641593
0.532625
-0.535438
0.016918
-1.145051
0.008221
-0.207611
-0.624626
0.050606
0.077368
0.030868
-0.350128
-0.054665
-0.491221
-0.251438
-0.010076
-0.339289
-0.541306
-0.733507
-0.097302
0.345698
-0.114140
0.598653
1.133680
0.594445
0.570233
0.427137
0.229967
-0.109884
0.681863
-0.766908
0.698754
0.114827
-0.328457
-0.623847
0.292818
0.676197
0.255358
0.873632
0.138429
-0.602914
-0.082132
0.610807
-0.111077
0.447555
0.589513
-0.467046
-0.647041
-1.052409
-0.148693
0.342916
-1.144695
0.439519
-0.877986
0.628041
0.137286
-0.681194
0.159871
-0.542517
0.434437
-0.227890
-0.876738
-0.169882
0.742835
-0.285970
-0.096289
0.392498
0.166295
0.965102
0.487128
0.715787
-0.408986
0.567492
0.161685
0.467791
-0.299354
0.106556
-0.693986
0.171667
0.085565
-0.048657
0.496205
1.170776
-0.425550
-1.039991
0.353822
0.421465
-0.583069
-0.639309
0.525036
0.877842
0.064298
-0.983117
-0.819030
0.193551
0.717832
0.365065
-0.753443
-0.649953
0.444142
-0.286426
-0.409179
0.368326
-0.864247
0.752746
0.110624
0.289002
0.060642
0.149147
0.571269
0.291999
-0.720742
0.477056
-0.961529
-0.506421
0.900892
0.490534
-0.912041
-0.107627
1.061844
-1.183861
-0.973002
0.189414
-0.736349
-0.414973
-1.035255
0.660700
0.928705
-1.017029
-0.650661
0.011398
-0.465686
-0.277458
0.185103
0.633997
-0.138906
-0.914272
-0.269257
-0.830069
-0.204451
-0.323218
-0.135327
0.730847
-0.558256
0.079640
-0.424129
-0.222913
-0.956441
-0.893655
-0.278057
-0.750499
-0.075723
0.038641
0.653319
-0.315907
0.644914
0.381527
0.030008
0.531707
0.661165
0.430716
0.116213
-0.287952
-0.646480
0.824010
-1.054582
0.350376
-0.995909
-0.205767
0.331878
0.651445
0.519468
-0.128142
0.481990
0.951433
0.343268
0.036365
-0.693682
0.569385
-1.048241
-0.015291
0.582380
-0.176288
0.818347
-0.673658
1.096954
0.802489
-1.392813
0.142823
0.060534
0.672823
-1.121788
0.939576
-0.673165
-0.361439
0.854343
-0.990961
-1.436282
0.939740
0.467241
0.037330
0.128947
-0.355946
-0.311374
-1.057468
-0.142403
0.744138
0.785513
0.093025
0.035734
-0.941590
-0.452085
-0.773891
0.280429
-0.571038
0.603876
0.219000
0.725422
0.578145
0.707635
-0.425312
0.393928
0.350039
-0.787888
0.347747
-1.567764
0.694664
1.140215
-0.276881
0.745581
0.211527
-0.060702
-0.638483
-0.573298
0.234969
-0.560189
0.226380
-0.239882
0.366797
-0.912075
0.225123
0.117812
-0.420907
-0.553230
-0.728530
0.351236
-0.406102
0.164996
-0.789801
-0.260967
-0.607870
-0.152849
0.353361
-1.846220
-0.334966
0.031791
-0.492670
0.255528
-0.485835
0.222727
-0.779150
-1.019090
0.761346
-0.957504
-0.220140
-0.362781
0.772022
-0.849108
0.661904
-0.561952
-0.155896
0.195376
0.486851
0.555864
-0.587609
0.130283
-0.876996
0.266944
-0.924138
-0.606074
0.429450
-0.538353
0.067635
-0.016483
0.148231
-0.541143
-1.615152
0.390130
-0.568074
0.246181
-0.118903
-0.451365
0.448212
-0.488408
0.624269
-0.616940
-0.058219
-0.206000
-0.052259
-0.576202
0.007066
0.090699
-0.730141
-0.426843
-0.471535
0.304189
0.128214
0.125520
0.572462
1.022415
0.023378
-0.053468
0.071864
-0.238137
0.005554
0.486985
-0.886199
0.878716
0.387924
0.447289
-0.143402
0.895366
-0.703861
-0.674915
-1.076608
0.450037
-0.556980
-0.112217
1.028128
0.268365
1.076910
0.327679
-0.452281
1.082062
-0.006102
0.316674
-0.375630
-0.333079
-0.794160
-0.961192
-0.527622
0.776917
-0.380986
-0.022471
-0.775631
-0.286839
0.071383
-0.129301
-0.470990
-0.761020
-0.544553
0.493651
1.026382
-0.529402
1.010867
-1.470125
0.711355
-0.299409
0.333580
0.716644
-0.828472
0.192291
-0.566062
0.104997
0.116249
0.521668
-0.640818
0.703694
-0.837324
-0.269034
0.883183
-0.575884
-0.625577
-0.271883
0.820879
-0.368716
0.591110
-0.279808
0.769213
-0.824542
-0.207194
-0.962463
0.364329
-0.549741
-0.620150
0.421684
-0.145783
-0.816775
-0.823513
-0.875925
0.478325
-0.440679
0.156705
-0.817529
0.259199
-0.790153
0.719979
0.559164
0.809783
0.630032
-0.629481
0.534768
-0.494709
-0.231865
-0.571117
-0.752091
0.557930
0.904822
-0.211661
0.179894
-0.885612
0.273627
0.219884
0.621204
-0.509003
0.827971
0.011416
0.255711
0.383751
0.422748
0.252752
0.213509
0.521935
-0.715559
0.461881
-0.249490
-0.400486
-0.057802
-0.488490
-0.770880
-0.091848
-0.299280
0.891503
0.319437
0.450023
-0.827032
0.154840
-0.238269
-0.807605
-1.337631
-1.002420
-1.048607
0.722105
0.544036
0.651671
-0.862416
-0.271491
-0.164323
0.223692
-0.298286
0.811238
-0.608922
0.791391
0.460048
-0.274534
-0.158597
-0.772310
0.007637
-0.837786
-0.582774
0.328467
-0.144520
0.083787
0.115001
0.790055
-0.576218
0.397748
-0.088484
0.434804
0.264833
0.071306
0.405593
0.328020
-0.270555
-0.267910
-0.041188
-0.387291
0.601833
0.568280
0.786706
-0.819712
0.471663
-0.958213
0.657908
-0.305505
-0.290335
-0.162790
-0.311948
0.746383
-0.240555
0.268214
-0.043773
0.703941
-0.561155
-0.964823
0.451385
-0.042633
0.178896
-0.468896
-0.863135
-0.493004
0.569114
0.622520
0.891883
-0.911743
-0.572837
-0.251498
-0.161470
-0.853516
-0.587034
-0.464554
-1.017768
0.717229
-0.255225
-1.058240
-0.713193
0.490935
-0.270121
0.230697
0.172665
0.814244
-0.455632
-0.794167
0.421587
0.073570
-0.942671
-0.143422
0.721221
0.454356
0.361881
-1.120514
1.078809
-0.175214
0.561859
0.790991
-0.016596
-0.685888
-0.532138
0.747630
-0.839628
-0.123338
-0.586450
-0.530140
-0.336401
0.213327
-0.557326
0.003375
-0.416645
0.358411
-0.824392
0.874315
-0.047450
-0.121749
-1.087715
-0.548087
0.709526
-0.781152
0.305089
0.231726
0.852680
-0.335144
0.288727
0.677560
0.398067
0.386910
0.473128
-0.817032
0.293983
-0.849495
-0.866390
0.822784
0.080084
-0.371200
-0.902360
0.483027
0.801082
-0.278880
-0.453253
-0.485796
0.872414
-0.343590
-0.731302
0.149767
0.503589
-0.614828
0.548687
-0.174169
-0.249309
-0.216972
-0.579509
-0.405080
0.246263
1.019753
-0.889772
-0.395953
0.267833
0.873183
0.030997
-0.283770
0.761059
0.338765
-0.554747
-0.178270
0.859445
-0.256765
-0.804447
0.725663
0.203328
-0.411233
-0.940933
0.365260
0.479431
-0.656427
-0.578152
-0.498420
-0.161885
0.972263
0.281907
0.543561
-0.794023
1.002662
-0.914616
0.848809
0.975025
-0.700915
-0.469065
0.105607
-1.132224
0.734006
0.703899
1.004159
-0.022925
-0.699270
-0.541578
0.099570
-0.397023
-0.373218
-0.466432
-0.771445
0.366509
-0.444414
0.200869
-0.157238
0.273409
0.376614
0.401582
0.731049
0.309552
-0.382859
0.192092
0.951621
-0.409908
0.390575
0.690860
-0.478531
0.658260
-0.455263
0.396314
0.596342
-0.757622
0.426711
0.647957
0.394052
0.373819
-0.626516
-0.662837
-0.879960
0.400719
-0.463283
-0.341269
-0.578543
0.554292
0.145452
0.378965
-0.686838
-0.065573
0.959402
-0.765054
-0.768932
-0.635331
0.541615
-0.684775
-0.355788
0.096824
-0.719497
-0.170997
-0.671359
0.032924
-0.509104
-0.736941
-0.232031
0.130963
0.563624
0.949853
0.221063
1.391249
1.353498
0.884979
-1.407162
-0.219399
0.577734
-0.353035
0.812761
-0.630571
0.598801
-1.060374
0.289348
0.137822
-0.920830
-1.035614
0.352129
0.485185
-0.129251
-0.903974
-0.450140
-0.033704
0.268688
-0.564990
0.651282
0.155069
-0.471603
-1.103559
0.724275
-0.536572
-0.524122
-0.479083
0.762567
-0.867154
0.657453
-0.420826
-0.115896
0.040311
0.066536
-0.541391
-1.173039
-0.027899
-0.505254
-1.008468
-0.850448
-0.427647
-0.550969
0.214726
-0.516385
0.254926
0.719872
-0.860630
-0.840091
-0.202306
-0.442548
0.365493
-0.724438
0.501685
0.893645
0.363745
0.030464
-0.736039
0.752738
0.505924
-0.805545
0.396670
-1.011947
0.052345
-0.519717
0.640004
0.568167
-0.366971
-0.931329
-0.448723
-0.328272
-0.818797
-0.223389
0.096784
0.816326
0.173297
-0.653239
0.168155
-0.038109
-0.494689
0.848310
-0.398208
-0.858495
0.759882
0.250982
-0.878146
-0.020508
0.610795
-0.865734
-0.284113
-0.546924
-0.396489
-0.840781
-0.052032
0.715819
-0.428364
-0.652358
1.090797
0.112017
-0.700982
-0.806213
0.545530
0.079039
0.479635
0.337532
-0.162689
-0.943022
0.675142
-0.741249
-0.616625
0.936371
0.741694
-0.476599
-0.729256
-0.007716
1.141424
-1.090485
-0.327969
0.012439
-0.946719
0.252296
1.133688
-0.064824
0.401903
-0.391182
0.361272
0.880180
0.026934
-0.565860
0.157828
0.920974
-0.234520
0.272368
-0.285224
-1.037053
-0.855052
0.704378
-0.093189
0.766578
0.337312
0.014593
1.257098
-0.081535
0.530938
0.472894
-0.352068
-0.147082
0.459048
0.308915
-1.003788
-0.661635
-0.686267
0.997928
0.199820
0.736186
-0.210003
0.654994
0.717153
0.674658
-0.789130
-0.156376
0.180857
0.260189
-0.525630
-1.039166
0.266344
-0.602093
0.279461
-0.098630
-0.759347
-0.253656
0.164825
0.758503
-0.813368
-0.813330
0.445249
-0.459509
-0.134340
0.794545
-1.077042
0.343609
0.203245
-0.566638
-0.086625
-0.432264
-0.841396
0.652386
-0.818089
-0.796182
0.547884
-0.119759
0.650563
-0.061492
-0.262878
0.382098
-0.096349
1.876861
0.932716
-0.873629
-0.496810
-1.176875
0.204525
0.314435
0.780057
0.768825
0.812918
0.632825
-0.729321
-0.239553
0.173863
-0.696486
0.749507
-0.798454
-0.355057
-0.328955
-0.033299
0.408874
-0.851122
0.538073
1.055568
-0.727399
-0.233195
0.019576
0.016949
0.346254
-0.986946
0.559084
0.526320
-0.724267
-0.409498
0.493287
-0.734257
0.971828
-0.276106
-0.735242
0.145549
-0.789032
1.006699
0.631015
0.024469
-0.516642
-1.057455
-0.557137
0.549107
0.300746
0.707386
-0.478932
0.156271
0.843019
-0.110276
-0.583166
0.524626
0.240337
0.559962
-0.397111
0.059771
0.585813
-0.209904
1.268338
-0.848752
0.344840
0.416629
-0.772624
-0.338546
1.145511
-0.068987
-0.794790
-0.805587
-0.653186
0.651362
-0.438166
0.787918
-0.691450
0.394100
0.043008
0.988051
-0.238219
1.458836
-0.729695
-1.459410
-0.170512
-0.239022
0.912199
1.314358
-1.015537
-0.147949
-0.039447
0.982879
0.719944
-0.491508
-1.287369
-0.744015
0.651103
-0.177593
-0.140767
0.622489
0.207567
0.073696
0.280358
-0.783285
0.304360
-0.162590
0.650215
-0.439582
1.213608
0.537879
-0.397882
-0.666398
-0.256763
0.017517
-0.759375
0.260011
0.775284
-0.421978
1.047610
1.068686
0.506628
0.799366
-0.077630
-0.557961
-0.423264
0.641198
-0.739929
0.325041
-0.646883
-0.199597
-0.406723
0.873756
-0.541334
-0.595621
0.987318
0.079694
0.661058
1.075780
-0.680756
0.529296
-0.237939
-0.538455
-1.286908
-0.080301
0.573009
-0.744562
0.036694
0.025003
-0.458324
-0.585896
-0.742513
-1.336878
-0.625647
0.833040
-0.998556
-0.161216
0.263762
-0.682139
-0.784492
0.714419
0.492112
0.039401
0.581922
0.524765
-0.624287
-0.174754
-0.576492
0.831599
-0.059161
-0.898967
0.613917
1.113555
0.329446
0.253409
0.391500
-0.229863
-1.123117
-0.480879
0.307777
0.479015
0.255510
1.072740
0.077920
0.832923
0.789414
0.467673
0.761558
0.403618
0.868038
-1.134108
0.273880
0.344886
0.748709
0.024711
-0.641229
-0.690981
-0.987543
0.393772
-1.081945
0.199430
0.555358
0.456080
0.163814
0.239381
0.104930
-0.674288
0.642482
0.442271
0.026575
0.366356
-0.443111
1.094482
0.039535
0.859363
0.351646
-0.213434
0.141680
-0.256919
-0.793125
0.011950
0.520608
0.416657
-0.968569
0.213477
0.607390
0.040513
0.540325
0.914189
0.670015
0.581353
0.237623
0.590934
0.176340
-1.032619
-0.345931
-0.413605
-0.355460
-0.920991
-1.083397
0.283848
0.413572
-0.541275
0.431899
-0.557379
-0.248938
-0.688422
0.264848
0.868437
0.937669
0.390208
-0.178173
0.363362
-0.667744
0.290971
-0.310427
-0.572212
0.814159
-0.876826
-0.444491
0.757178
0.851766
0.452566
0.403217
-0.001077
0.823753
0.802320
0.555699
-0.679171
1.014649
0.364223
0.619032
0.257504
-0.840689
-0.418386
0.687136
-0.278233
0.589899
-0.179630
-0.424214
0.449692
-1.105870
0.670519
-0.068597
-0.483677
-0.479478
0.591364
0.132547
-0.571619
0.708704
0.340483
-0.748533
0.266890
0.206964
0.494514
-0.780354
-0.067547
0.412268
0.585814
0.016023
0.292977
0.253399
-0.753500
-0.433451
0.623143
0.664685
-0.619714
-0.716320
0.231023
-0.306181
0.103311
-0.373506
-0.229008
-0.676158
0.497766
0.549731
-0.097538
0.280922
-0.590489
0.372922
-0.409130
0.896653
0.472662
0.890943
0.136304
0.169019
-0.937324
0.780339
-0.617450
0.774163
-0.501136
0.714124
0.374651
0.549524
-0.463972
-0.219957
0.057136
-0.649779
0.246717
-0.928340
0.504469
0.883759
-0.312137
-0.771883
-0.698039
-0.777561
0.505084
0.252320
0.070620
0.910130
-0.741407
0.722988
0.929066
-0.927193
0.519552
-0.132341
0.124972
0.744341
-0.445523
0.722682
0.433416
0.561299
0.388721
-0.359785
-0.002984
0.733974
0.399313
0.810602
-0.844058
-0.590649
0.862141
0.528086
-0.614742
-0.595338
0.417461
-0.512822
-0.435721
0.070623
0.494917
0.665906
-0.080260
-0.906584
0.302359
-0.022410
-0.783804
-0.158673
0.778817
0.423918
-0.646073
-0.462776
-0.108706
0.850610
-0.934773
-0.639924
-0.452308
-0.148058
-0.833396
0.844813
-0.199893
-0.559966
-0.649652
-0.427543
0.623579
-0.431794
0.144662
0.342661
-0.069533
0.745436
-0.635807
-0.318778
0.346689
0.608852
-0.179904
-0.274011
-0.510156
-0.063923
0.490951
-0.618746
-0.700721
0.978875
-0.319650
0.204669
0.908340
-0.197128
0.813632
-0.772973
0.728759
1.105989
-0.962014
-0.514285
-0.777738
-0.584575
0.111630
-0.835171
-0.061954
-0.693708
0.673777
1.030563
0.984198
-0.875067
-0.297393
0.481576
0.514916
0.459051
-0.883885
-0.863363
-0.374280
0.637544
-0.778036
-0.385250
0.650495
-0.054577
-0.798367
0.497509
0.765964
0.995861
0.627561
0.294007
0.888092
0.910536
0.788217
-0.759275
-0.735829
-0.099284
-0.632470
0.219573
0.028110
0.953883
0.213265
0.223194
0.909060
0.859048
-0.578792
0.584744
0.336005
-0.592000
0.462776
0.690905
-0.764026
0.702822
-0.403964
0.852835
-0.349371
-0.377541
0.068907
-0.627866
-0.474748
-0.049450
0.645402
-0.675107
-0.263544
0.470875
-0.274524
0.081747
-0.810532
-0.082977
-1.019176
0.386933
-0.453837
0.196365
-0.769839
-0.303187
0.173378
-0.348967
1.097309
-0.572537
0.343507
0.624858
-0.886168
0.274405
0.127094
-0.437533
0.351429
0.899807
0.228672
-0.643730
-0.847301
0.727909
0.127037
0.974431
-0.839188
-0.882642
0.334185
-0.188572
-0.316538
0.761115
0.339404
-0.090318
0.265872
-0.810596
-1.114790
0.243002
-0.616836
0.657769
-0.922131
-0.460398
0.401641
0.297792
-0.998845
0.693543
-0.481758
0.481865
-0.635755
0.950198
0.071411
0.593538
-1.181553
0.538665
0.564655
0.575505
0.358493
0.764612
0.410799
-0.018386
-0.542565
-0.544184
-0.198055
0.845970
0.479186
0.577973
1.042353
1.198271
-0.186056
-0.910498
0.114682
-0.043177
-0.042758
-0.218844
-0.700330
0.187686
-0.717437
-0.014664
-0.875301
-0.302806
-0.241401
0.525077
-0.665124
0.011065
0.322467
0.982089
-0.366468
-0.448766
0.255986
-0.789830
0.525057
1.081593
0.156272
-0.620403
0.766630
-1.588027
0.871973
0.288187
0.344690
-0.332290
0.006477
-0.383872
0.209818
-1.057727
0.322385
0.575603
-0.006679
0.602717
-0.083653
0.751844
-0.557399
1.055125
0.384384
-0.288801
-0.089332
-0.597927
-0.803790
0.225488
-1.001063
1.289443
0.424713
-0.834600
0.820027
-1.726459
-0.607615
0.471769
-0.767947
-0.883543
-0.534967
0.814704
-0.892058
0.736790
-0.181048
-0.587345
-0.540366
-1.047928
-0.839740
0.665456
0.323466
0.198924
0.352639
-1.149815
-0.054192
0.122157
-0.152546
0.307270
-1.134636
0.432060
0.570767
0.539375
0.526324
-0.483464
1.005183
0.308921
0.432535
-0.768458
-1.042565
0.286251
-1.231286
-0.490686
0.305449
0.162457
-0.677057
-1.517262
0.001588
-0.403224
-1.456853
-0.275875
-0.528217
0.519078
-0.683507
1.246650
0.762947
-0.420749
-0.587662
-0.742769
-0.007571
0.466461
0.456881
-1.304161
0.050433
-0.316351
0.593402
0.147924
0.627817
-1.051321
-0.256779
1.037098
0.633206
-0.128958
-0.836908
-0.131994
0.789897
-0.786727
-0.349812
0.128545
-0.556060
-0.286432
1.095485
0.521257
0.179072
-1.436472
0.340988
-0.574084
0.240523
0.915744
-0.122547
0.982011
0.133715
-0.945531
-0.956452
-0.581764
0.320148
0.474200
-0.689124
0.235719
0.225622
0.820638
-0.378778
-0.020941
-0.449794
-0.330004
-0.740268
-0.023306
-0.088722
0.087300
0.517850
-1.137917
-0.216587
0.284919
0.198556
0.238462
0.726269
-0.179406
0.699229
-1.258754
-0.131238
-1.655402
-0.397459
0.218652
-0.327153
-0.121336
1.192746
1.173292
0.064903
0.074970
-0.188420
0.045921
-0.574813
0.375748
-0.838518
0.740422
-1.325908
-0.391340
-0.415326
-0.069176
0.421038
-0.821449
0.392021
0.772045
0.507436
-0.265041
-0.158370
-0.345774
0.518002
-1.993298
0.528374
-1.275727
-0.468933
-0.662487
1.541793
-0.271303
-1.177469
1.286246
0.028168
-0.561801
-0.635788
0.775018
0.163444
0.659553
-0.168679
1.075862
0.575633
0.083760
-0.760554
0.915226
-0.756819
-0.803418
-0.938321
0.927320
1.224479
0.386465
0.060050
-1.100039
-0.781622
-1.320577
-0.402970
-0.566387
-0.115552
0.357307
-1.172856
-0.397953
-0.827276
0.012182
0.720032
-0.118732
-0.106255
-0.327148
-0.638844
0.022466
-0.659394
-1.070064
-0.724808
0.494755
0.809061
0.044532
-0.012554
-0.623255
0.355409
-0.078886
-0.973304
-0.683375
0.395248
-0.706372
0.649529
-1.000813
1.039512
-0.160498
-1.354909
0.348132
0.420053
-0.551559
0.098878
0.592349
0.375642
0.105411
-1.046318
-0.096800
-0.782599
0.326649
0.384428
-0.581435
0.822014
-0.773277
-0.936162
0.442039
0.303227
0.997828
1.096187
-0.791649
0.537751
0.811647
0.202365
0.090355
-0.269621
-0.217986
-0.284551
0.843716
-0.155631
0.805634
0.457571
-0.766721
1.033093
-0.669754
0.863979
0.866374
1.231968
-0.102107
-0.235066
-1.099911
-0.223855
-0.644179
-0.706052
-0.524530
-0.710118
-0.173237
1.084842
0.732313
-0.841323
0.373067
0.904184
0.934886
0.815367
0.322558
-1.025771
-0.841421
0.204899
0.819534
-0.490604
0.866368
0.085423
0.164413
-0.874139
-0.375686
0.991954
-0.947484
-0.442894
0.561393
-0.008419
0.504299
0.857831
0.504882
-0.273510
-0.495159
0.748187
0.463731
-0.303850
0.494110
0.210949
0.089276
0.618921
-0.248081
-0.760132
-0.300746
0.338331
0.580702
0.004866
-0.785834
-0.141963
0.523844
-0.468195
0.622956
-0.038667
-0.501355
-1.393060
-0.538876
-0.522122
-0.245364
-0.358861
0.468998
0.399477
-0.983503
-0.395029
-0.645140
0.178933
-0.135571
0.167393
0.211958
-0.725448
-0.630789
-0.888408
0.163900
-0.182545
0.227506
-0.492362
-0.637005
1.098961
-1.513321
-0.780391
-0.433782
0.282076
0.042610
0.103355
-0.508641
-0.147215
-0.874946
0.726045
0.448674
-0.713280
-0.428109
-0.125498
-1.084035
-0.351543
1.176300
-0.681094
0.160141
-0.329037
-0.319432
-0.908513
-0.203720
0.234719
-0.307523
0.065622
-0.833163
0.367343
0.330481
-0.839133
-0.584939
0.207880
-0.364375
0.216966
0.395613
0.782349
0.298525
-0.816667
-0.560641
-0.106118
0.536078
-0.580719
0.882246
0.730438
0.130820
0.962222
-0.697775
0.572677
-0.129369
-0.080533
-0.820054
-0.013561
0.509427
0.085590
-1.052702
0.717862
0.863531
-1.022944
-0.070571
0.350566
-0.237184
0.905823
0.392637
0.559165
0.272199
-0.342606
0.140059
-0.663233
-0.235088
1.224861
0.560305
-0.300112
-1.038493
0.728769
-0.573110
0.501335
0.481272
-0.541274
-0.208389
-0.893098
0.781437
-0.054217
-0.015530
0.166486
0.921479
-0.000600
-0.013678
0.917822
0.293502
0.859798
0.475721
-0.925071
0.878776
-0.215534
0.562365
-0.130265
0.436558
0.215478
0.505908
-0.458141
-0.374334
0.357408
0.301756
-0.119291
0.006476
0.425868
-0.623000
-0.654062
-0.739722
0.106053
-0.676974
1.085551
0.904533
0.197044
0.108987
0.522622
-0.717188
-1.217405
0.442174
0.837597
1.059979
0.034931
0.770108
0.637058
0.598122
0.647462
-0.144249
0.295504
-0.822549
-0.538032
0.734717
0.085257
0.704807
-0.292183
0.935920
-0.678016
-0.346792
-0.785914
-0.474502
-0.100417
0.402618
-0.304944
-0.339442
0.010039
-0.787342
0.438678
-0.234372
-0.207499
0.780439
-0.493494
-0.513551
0.796304
-0.103021
-0.530452
0.554115
-0.296327
0.533377
-0.604164
0.851499
0.977994
-0.076596
0.294161
0.028015
-0.838095
-0.760559
-0.118286
-0.584713
-0.087819
0.297592
-0.179782
0.533600
-0.482896
0.954835
-1.112298
0.753964
-0.683807
0.816814
-0.302548
-0.132898
0.576587
-0.351661
0.536255
0.283963
0.976370
0.427171
-0.168583
-0.482491
0.228907
0.195557
-0.903167
0.202957
0.731847
0.428289
-1.034627
0.863879
0.790944
0.090576
-0.812176
-0.443876
-0.722800
0.425799
-1.142788
0.050158
0.218238
-0.919089
-0.388298
0.324848
0.953732
-0.042141
-1.005670
0.260222
1.247506
0.343793
-0.387892
0.757483
-0.056049
0.293698
-0.797142
-1.117857
-0.542186
-0.873852
0.044958
-0.800111
0.502727
0.201790
-1.015021
0.400800
-0.758401
-0.681051
0.922045
-0.344530
0.686012
0.978043
0.415102
-0.237386
-0.823807
-1.068513
0.817589
0.843526
0.696089
0.931197
0.343247
0.379396
0.378372
-1.092531
0.201478
-0.947277
0.383364
0.205611
-0.842338
0.881040
0.402850
0.308454
-1.008279
0.326017
-0.563332
-0.902849
-0.185899
-0.337017
-0.408860
-0.010202
0.160977
1.089904
-0.025046
-0.647725
-0.334854
-0.026568
0.261170
-0.524768
-0.005699
-0.608975
-0.591648
-0.713422
0.820126
0.768963
-0.712933
-0.311418
0.831273
0.782903
-0.890221
-0.758877
0.589940
0.837209
0.439989
0.785156
0.185504
0.857078
1.039583
-0.718019
-0.529566
-0.745816
0.175428
0.261059
-0.893556
0.875033
-0.298551
-0.123553
0.035806
0.335280
0.307518
1.018480
0.674859
0.813419
-0.718037
-0.010666
0.545945
-0.389813
-0.956677
0.736220
-0.736318
-0.555726
0.782097
1.006545
-0.872199
0.281139
0.844100
0.683139
0.029183
0.244735
0.967021
0.187080
0.424352
-0.158970
0.267949
0.643642
-0.081962
0.398420
-0.522416
0.878628
-0.200398
0.730102
0.709939
-1.049579
0.547190
0.975346
0.296309
0.487878
-0.456726
0.577316
-0.159812
-0.179543
0.623394
-0.335818
-0.125974
-0.618927
0.959831
-0.849337
0.909627
-0.159517
0.560582
0.663806
-0.451371
-0.181302
-0.270560
0.448828
-0.163702
0.504362
-0.027821
-0.093816
0.139744
0.366009
-0.348362
-0.031077
0.396526
-0.447016
0.022011
0.128091
0.625486
0.543047
-0.419027
-0.287533
-0.633958
-0.494644
0.253537
-0.008293
-0.296092
0.453119
0.019552
-0.385119
-0.924209
-0.328672
-0.908888
-0.684369
0.598019
-0.241235
1.011414
-0.996889
-0.747776
-0.324947
-0.012405
0.480252
-0.940525
0.968068
-0.504763
0.728784
-0.548585
0.575761
-0.344865
-0.966212
0.040336
0.693869
-0.244293
0.340056
-0.670051
-0.469149
-0.890070
-0.234753
0.320131
0.430879
0.432686
-0.082866
-0.995730
0.798763
0.753881
0.723169
-0.583783
0.557471
0.767908
-0.263781
-1.171390
-0.041865
-0.631169
-0.540629
-0.100303
0.012480
-0.545379
-0.129488
-0.541488
0.429719
0.087135
0.386993
0.011593
0.195916
-0.199070
0.724799
0.006157
0.005738
-1.155278
-0.176153
-1.206815
0.164479
-0.616040
-0.452472
0.214056
0.715526
-0.384842
0.905150
0.714988
1.191547
-0.418839
0.682837
-0.256100
0.024434
-1.164945
0.555595
0.323707
-0.273672
-0.748358
-1.098212
0.910140
0.560130
0.402454
-0.263408
-0.224359
-0.825205
-0.866700
-0.131320
-0.299051
-0.862366
0.958333
0.794477
-0.708285
-0.967414
-0.302795
0.266507
1.352897
-0.739998
0.831443
0.308046
-0.092171
-0.702925
-0.777249
0.161281
-0.505142
0.090379
-0.482406
-0.171287
0.339739
-0.091704
-0.396779
0.427106
-0.564444
-0.613849
-0.908947
-0.276799
-0.962354
-0.513194
-0.458587
0.834487
-0.013433
-1.277878
0.654424
-0.009057
-0.653242
0.662658
-0.735848
-0.298348
-0.568265
-1.108279
0.961858
-0.334623
-1.316745
-0.141141
-0.729440
0.281597
0.777368
-0.309504
0.948142
0.159193
-0.473427
-0.064829
-0.769910
-0.470295
-0.297855
-0.413526
-0.449277
0.009021
0.062761
-0.317837
0.114121
0.738476
0.203470
-0.295859
-0.179282
0.851914
-0.340974
0.587308
-0.213618
-0.502196
0.563421
-0.709758
0.781140
0.964750
-0.195687
-0.534718
-0.017059
-0.612985
-0.094302
-0.176689
0.847310
0.422445
0.037192
-0.641194
1.038848
-0.929733
-0.253022
-0.963628
0.673326
0.625262
0.014804
0.086127
0.577808
-0.690545
0.775285
-0.655316
-0.212400
-0.957778
-1.059861
0.050785
0.140079
0.939085
-0.060363
-0.798508
0.911799
0.104722
-0.198852
-0.996948
-0.119809
0.980568
0.910108
-0.256625
-0.257609
-0.094566
-0.388399
-0.335765
0.400421
0.280201
-0.008146
0.337535
-0.180009
-0.359018
-0.305693
-0.694618
-0.401974
-0.857366
0.600677
0.335655
-0.667247
0.661120
-1.129538
0.308569
0.781834
-0.941766
-0.854210
-0.245380
0.286175
-0.043143
-0.150218
0.574077
-0.611298
0.805801
-0.712491
0.825090
-0.800796
-0.270774
-0.794453
0.898102
-1.303485
1.094005
0.486680
-0.398651
-1.035668
0.554883
0.558473
0.381430
1.240258
0.245761
-0.021137
-1.027917
0.016113
-0.789765
0.387859
-0.986451
-0.896430
0.961283
-0.222882
0.293533
-0.404761
-0.952549
-0.044809
0.580068
-0.015651
0.001870
-0.126533
-0.759131
0.366582
-0.578174
-0.977794
0.507574
-1.357943
0.012878
-0.340617
-0.697956
0.032353
-0.072140
1.267534
-0.322565
-1.064804
-1.243493
0.446233
-0.332494
0.067096
0.207236
1.822651
0.335273
-0.633790
0.700661
-0.775123
-0.877562
0.820448
-0.069213
0.039487
0.422947
-1.378118
0.477148
0.754754
0.948125
-0.187166
0.619130
0.636566
0.400361
0.032823
-0.216882
1.088667
-0.433206
1.108593
0.317289
0.306959
0.558946
0.792263
-0.172938
0.216295
0.427295
-1.131547
-0.144119
-0.796281
0.386887
-0.098204
-0.447713
-0.124980
-0.496791
0.885999
0.266199
-0.542826
0.898137
0.834519
1.030606
0.734631
0.210237
0.420637
0.888682
-0.167289
-0.728170
-0.338500
-0.363118
-0.790389
-0.839240
1.123193
1.052399
-0.804875
0.705642
-1.051934
0.122833
-0.084299
-0.200772
1.058257
-0.057815
0.809497
0.053552
0.901932
-0.276722
0.623080
0.479154
0.702398
0.199998
0.366697
0.505241
0.054583
0.317632
-0.110492
-0.401850
-0.674805
0.487965
-0.450339
-0.058046
-0.726955
-0.229252
0.468608
1.634590
-0.286366
0.357872
0.883532
0.918491
0.185370
-0.497980
1.320743
-0.358838
0.485506
0.531073
0.648890
-0.538771
-0.589271
-0.584128
-0.626931
-0.492128
-0.861091
0.458484
-0.922628
0.171868
-0.388833
0.133301
0.023907
0.260221
-0.630474
0.960686
-0.283980
0.063266
0.116526
-0.865529
-0.432402
0.942060
-0.296142
-0.474704
0.235340
-0.334150
0.006413
-0.041821
0.641029
-0.965055
-0.980155
0.560260
0.371450
0.412073
-0.802410
0.555511
0.567988
-0.811606
0.143977
-0.978365
0.418456
0.956384
-0.100535
-0.252042
-0.047115
-0.768325
-0.340381
0.414689
0.004420
0.490101
-0.541290
0.693379
0.151665
-0.716356
-0.656861
0.655270
-0.037417
-0.141817
-0.727618
0.175242
0.990222
0.726428
-0.004958
0.181821
-0.024424
-0.267494
0.137969
-0.178967
0.497391
-0.887008
-0.240924
-0.260377
1.252468
-0.542350
0.252642
0.130735
-0.840372
0.808105
-0.303550
-0.130067
-0.042621
-0.040191
-0.620580
0.831164
-0.069220
0.022054
0.775674
-0.184519
-0.590603
-0.169353
0.689654
-0.917976
-0.575551
-0.559008
0.549485
0.252075
0.690416
-0.756856
-0.617551
-0.264389
-0.325262
0.017410
0.638753
-0.470067
0.223591
-0.093897
0.597990
0.162835
-0.368423
-0.414769
-0.728081
0.775946
0.454630
-0.037451
0.591471
-0.092810
-0.409458
0.705083
0.469599
-0.440482
-0.627273
0.265969
-0.075112
-0.072264
-0.747924
-1.055112
-0.455568
0.438374
-0.572844
-0.228651
-0.537565
-0.051938
0.870307
0.819961
0.515068
-0.294399
-0.273908
0.278692
-0.984594
0.568560
0.245448
-0.627407
0.120957
-0.012610
1.067578
0.296461
0.937510
0.963681
-0.218226
0.414539
-0.313221
0.229397
0.499596
0.138526
-0.657496
-0.065443
0.339405
-0.313797
-0.411705
0.743371
0.260164
-0.131479
-0.561009
-0.249669
-0.226815
-0.723958
0.625192
0.849575
-0.113425
-0.873677
0.301162
-0.470635
-0.179500
-0.074602
0.746291
-0.506623
-0.881190
0.313507
-0.527309
-0.123222
0.230200
-0.170857
-0.759126
0.784613
-0.797448
-0.471026
-0.142534
0.346223
0.018385
0.103324
-0.023142
-0.953679
-0.719273
0.841532
0.012534
0.146428
0.573508
0.003217
0.048671
-0.190675
0.336212
-0.176668
0.505414
0.822300
0.861058
-0.181942
-0.831889
0.767912
-0.198418
-0.610554
-0.317971
0.283341
0.440316
-0.259771
0.158676
0.474981
0.150664
0.632477
-0.394372
-1.063401
0.134444
0.976998
-0.804719
0.500064
0.324913
0.545040
-0.296158
0.311118
-0.458145
-0.815129
-1.040264
0.485600
0.100309
0.230722
0.044043
-0.326225
-0.549234
0.162517
-0.534650
-0.314621
0.720205
0.027611
-0.854602
-0.218711
0.808796
0.055904
-0.684326
-0.082885
-0.247268
0.082405
-0.087220
-0.824208
-0.118971
0.234076
0.757436
-0.591383
-0.203434
-0.235985
0.432036
0.044010
0.139309
0.341650
-0.694825
-0.930295
0.039132
0.455588
-0.123770
0.268047
-0.193833
0.344678
-0.774888
-0.784114
-0.527894
-0.899851
0.282957
-0.719622
0.060980
0.579333
0.108278
-0.732695
-0.391350
-0.850634
-0.499481
0.460729
0.655626
-0.494702
0.662517
1.042175
0.370216
-0.117557
-0.074848
-0.672569
-0.056418
0.364642
-0.412875
0.691880
-0.126218
0.552021
0.428963
0.606269
-0.128685
0.045810
0.846802
0.371116
0.161725
0.280889
0.532634
-0.344424
-0.253258
-0.123392
0.061510
0.290443
0.089769
0.726706
-0.326652
-0.721396
-0.847403
-0.843685
-0.764297
0.390079
0.609190
0.253385
0.907967
-0.670117
-0.395706
-0.556865
-0.865855
0.379072
0.958895
-0.076470
0.029009
-0.335209
-0.739472
-0.057364
0.929454
0.601402
-0.890836
0.634571
-0.666578
-0.257055
-0.585927
0.493640
1.012363
0.130677
0.232306
-0.535207
0.339238
0.234673
0.133522
0.657888
-0.223749
-0.597318
-0.003637
-0.386006
-0.265222
0.355951
-0.000971
-0.366399
-0.287656
-0.261088
0.819847
0.980294
0.369393
-0.972219
-0.269578
0.424838
0.739312
-0.227477
-0.067232
-0.601847
0.452885
0.062460
0.878512
0.434308
-0.795454
0.000697
1.122555
0.539652
-0.642766
-0.129912
0.522188
-0.037173
0.478484
-0.947580
0.377261
-0.993557
0.457577
-0.532591
-0.268158
-0.431497
0.292633
-0.328105
-0.707518
-0.348368
-0.190384
0.079108
-0.624916
-0.386734
0.452831
-0.193725
-0.213915
0.622954
0.946655
-0.104765
-0.842645
-0.931354
0.685247
-0.818165
0.686839
0.822280
0.528246
-0.036022
0.041421
-0.618287
-0.019156
-0.390604
-0.438566
0.063680
-0.140207
0.354557
0.494839
-0.980319
-0.820863
0.187606
-0.030527
0.023041
-0.637068
0.064951
0.832229
-0.959711
0.726846
0.203906
0.275376
0.940085
0.910557
0.331634
0.468815
0.151117
-0.821986
1.147957
0.237502
0.287778
-0.550805
-0.844161
0.565537
-0.089845
-1.258689
-0.524939
0.182027
0.922294
-0.287516
-0.731227
1.109019
-0.490281
-0.819808
-0.337122
0.513173
-0.576646
0.739975
0.049086
0.069657
0.554877
-0.772991
1.072504
-0.182403
0.499716
0.569798
-0.162809
-0.143893
0.703946
-0.142231
-0.729085
-0.025374
0.609643
-0.276517
0.205446
-0.897482
0.291283
0.556790
0.648174
0.102714
0.550655
0.515953
-0.719438
0.877267
1.052249
0.520033
-0.764228
-0.848754
0.149702
-0.357999
0.070191
-0.557190
-0.252114
-0.403018
0.249925
-0.424423
-0.482295
-0.155007
0.172727
0.636059
0.312929
0.805390
-0.448176
0.799277
-1.223504
0.102511
0.435860
0.309880
-0.708056
0.144200
0.831227
0.873067
-0.737290
-0.862707
-0.331689
1.124940
0.891782
-0.845241
1.130136
0.103760
-0.054925
-0.087334
0.396514
0.277143
0.116740
0.011640
0.167697
0.297530
-0.225846
-0.717873
0.615405
-0.149155
-0.447926
1.230815
-0.697710
-0.784313
-0.063749
1.266808
0.947169
0.567123
-0.996310
0.719520
-0.258146
0.487140
-0.752900
-1.169924
-0.836953
-0.748354
-1.053269
-0.279321
-0.389962
0.170645
-0.416706
-0.892055
-1.065982
-1.195546
0.257087
0.282450
0.353758
-0.063367
-0.473468
-0.047230
0.518976
-0.239518
-0.502656
-0.125842
0.584654
0.917015
-0.577066
0.457534
-0.175634
-0.346656
-0.105258
0.369658
0.165421
-0.034866
0.414776
1.055604
-0.060346
-0.503690
0.268871
-1.154152
-0.008463
-0.912385
-0.578322
0.347622
-0.448717
0.554762
-0.491126
-0.781685
-0.913760
0.105699
0.575467
0.772180
0.991313
-0.496414
-0.291810
0.455949
-0.859056
-0.838227
-0.641494
0.027560
0.048284
0.236860
0.457280
-0.646150
-0.536223
-0.090370
-1.211470
0.501572
-0.030767
0.941498
0.338408
-0.681561
-0.452549
0.777698
-0.265208
0.160235
0.283721
-0.722748
-1.269403
-0.117147
0.139419
0.774243
0.621751
0.515983
-0.941826
-0.388964
-0.398811
-0.376429
1.287956
0.334304
0.745494
0.142122
-0.161196
-0.142084
0.883332
-0.308235
0.737368
0.696649
-1.061645
-0.390080
0.395031
0.807461
-1.259904
-0.991144
0.330879
-0.721905
0.185302
-0.681902
-1.153835
0.890277
0.585268
0.259598
0.590506
-1.058961
0.121161
0.556330
-1.125260
0.914249
-0.448318
-0.952827
-0.069616
0.934046
0.490752
0.156415
-0.484252
0.102871
-0.874302
1.008826
-0.389636
-0.830204
-0.956161
-0.728430
1.043608
0.240521
-1.244532
-0.042459
-0.072761
1.194650
-0.216967
-0.107192
0.252794
-0.562020
0.353809
-0.318809
0.126444
1.270486
0.080819
0.133836
1.022552
-0.202736
0.571241
-0.640987
-0.361798
-0.237767
0.714209
-0.310760
0.775166
0.604636
0.331709
-0.532944
-0.339079
0.738720
-0.795416
-0.685821
-0.169229
0.489870
-0.077711
-0.814748
-0.891972
-0.679354
0.159895
0.845821
0.026538
0.087934
-0.289609
-0.315023
-0.026394
0.456936
-0.681908
-0.675166
-0.505323
0.955598
-0.491166
0.435215
-0.386739
-0.589566
-0.394050
-0.714474
-0.426078
1.029920
-1.039618
-0.687010
0.839217
-0.098300
-0.391373
-0.636788
0.601352
1.128646
-0.413579
-0.966576
-0.303506
-0.694211
-0.839182
0.960703
0.254548
0.299825
-0.163552
0.388278
-0.562440
0.135992
0.457889
-0.697090
-0.609611
0.741082
-0.143791
0.088394
0.693874
0.085641
0.175876
1.392617
-0.064217
0.902519
-0.625698
-0.154166
-0.696525
0.062511
-0.128188
-0.357103
0.872548
0.716906
-0.400560
1.273107
1.273096
0.079704
1.088208
-0.207365
0.229204
-0.662106
0.659695
0.505019
0.098519
0.244389
-0.175315
-1.085942
-0.824601
0.624528
0.294739
-0.292171
-0.911410
-0.304210
-0.212530
-0.060823
-0.148945
0.206352
0.017700
0.109685
0.979160
-0.153584
0.157706
0.348578
-0.810729
-0.970797
-0.409030
-0.791571
-0.584054
-1.123529
-0.237104
0.669240
-0.300289
-0.190885
0.267945
0.682862
0.642956
-0.355886
1.088831
-0.546326
0.305958
0.401492
-0.027145
0.224089
0.816543
0.178770
-0.613992
-0.714878
-0.697591
0.693105
0.392070
-0.324621
-1.330592
-0.028234
0.179645
-0.944758
0.091627
0.293428
-0.928853
0.627318
0.438791
0.158462
0.462130
-0.623731
0.892785
0.173489
-0.777950
0.994769
0.269788
1.115108
-1.123714
-0.271473
0.000829
-0.320294
0.737935
0.206918
-0.941880
-0.656888
0.580459
-0.497920
0.925441
-0.253827
-0.777270
0.123281
-0.887143
0.043736
0.916970
-0.140261
-0.434692
-0.777250
0.182220
-0.257227
0.586969
-0.466718
-0.288276
0.167231
0.452485
-0.162970
-0.253015
-0.077769
-0.399740
0.063668
0.211455
1.081815
0.902955
0.228674
-0.118882
-0.760251
0.346109
-0.741297
-0.633437
0.023062
-0.025631
-0.345467
-0.102825
0.182542
-0.893600
-0.338976
-0.557290
-0.200154
-0.036452
0.963128
0.743039
-0.800031
-0.810655
-0.574434
0.192182
0.919561
0.007583
-0.530078
-0.579267
-0.835460
0.307253
0.668039
1.060958
0.591463
-0.215927
-0.021090
0.228686
-0.687957
-0.046262
0.809407
0.453892
-0.935691
-0.357072
0.769828
0.146984
-0.281455
-0.345978
-0.665643
-0.838803
0.509051
0.731273
0.730778
0.499618
1.085176
-0.984989
0.470351
0.462075
0.331846
0.605262
0.906455
0.350516
0.213257
0.496086
0.282273
-0.784547
-0.646108
-1.027475
0.533151
-0.145559
0.056539
0.427421
0.869030
0.385258
-0.951752
0.942868
0.187553
0.228226
-0.417101
0.055354
0.217302
0.903618
-0.139752
-0.140599
0.836313
-0.496063
-0.056173
-0.290287
-0.810700
-0.714525
-0.593342
0.866742
0.588286
0.370196
0.495790
-0.554183
0.836760
-0.872480
-0.361479
0.480095
-0.290419
0.912424
-0.010758
-0.298710
0.842749
0.306022
-0.302412
-0.553517
-0.546029
0.135809
0.534257
0.648929
0.379989
-0.980965
-0.466627
-0.434026
-0.249505
0.332149
0.483933
-0.244661
0.674689
0.836370
-0.359440
-0.299997
0.495329
-0.672977
0.414208
0.273011
-0.805726
-0.630219
-0.261998
-0.016288
-0.605113
0.767267
0.545925
0.723996
0.056390
-0.807226
-0.935125
0.450956
0.297735
0.389907
0.066711
-0.698217
0.530446
0.461040
0.094624
-0.874963
0.024188
-0.365949
0.004621
-0.591449
-0.394293
0.477112
0.217763
-0.909957
0.742994
-0.180049
0.534250
1.053892
0.205012
-0.897941
-0.163148
0.343424
0.907747
-0.537226
0.014318
-0.104184
-0.319629
0.060494
-0.656877
-0.975324
-0.403498
0.352034
-0.368137
-0.902993
0.118991
0.841880
-0.546967
0.927708
-0.500601
0.165202
-0.752322
0.116769
-0.176533
0.612167
0.351804
-0.258574
-0.436419
-0.474193
-0.420899
0.447249
-0.307213
0.348197
-0.266538
-0.502876
-0.827946
0.824543
0.446503
-0.228218
-0.183627
0.814194
0.277700
0.699988
0.350058
0.707368
0.748798
-0.716463
0.691567
-0.844579
-0.908254
-0.891917
0.517061
-0.407249
0.440400
-0.599711
-0.953595
-0.531213
-0.123473
-0.572240
-0.020592
0.597802
0.831661
0.585169
0.207138
-0.298026
-0.946555
0.296420
-0.759872
0.431285
-0.638048
0.558996
0.237277
0.123405
0.022825
-0.592668
0.248483
-0.047915
-0.469380
-0.420176
0.267396
-0.165151
0.046812
-0.559733
0.205055
-0.798910
-0.362932
0.158289
-0.521546
0.728167
0.562356
0.436522
0.339155
0.452601
-0.033766
-0.669622
-1.012344
-0.046960
0.747996
-0.415491
-0.604311
0.736607
-1.046384
0.487605
0.384431
0.329577
0.807026
-0.927423
-0.839939
-0.544607
0.126839
0.098677
0.144855
0.897083
0.475719
-0.754519
0.940607
-0.588411
0.476952
-0.523192
0.884391
-0.007637
0.832820
0.014095
-0.477575
-0.440777
0.473925
-0.571125
0.382947
0.027987
0.064184
0.868096
0.054851
0.299014
0.404978
-1.015271
-0.513780
0.267615
-0.567204
-0.241905
1.000200
0.065906
0.313379
-0.145307
-0.306794
0.819453
0.172951
-0.132633
-0.257712
-0.537398
0.107450
-0.032459
0.375555
-0.570231
-0.893899
-1.118056
0.284871
0.230620
-0.601695
-0.062627
-0.438781
0.865215
-0.270996
0.435509
0.380762
-1.008065
0.690285
0.497236
0.009766
0.669157
-0.579560
0.055913
0.056061
1.171529
-1.082670
0.966871
-0.179114
0.386958
-0.738075
-0.467364
0.227685
0.036224
0.518013
0.375803
1.175322
0.165691
0.600488
0.301206
-0.600537
-0.612688
-0.796952
0.221219
-0.586646
0.488497
-0.055707
0.275474
0.724405
-0.513411
0.528009
-0.331163
-0.830124
0.449342
0.507770
-0.513249
0.900314
1.037292
-0.261063
-0.655553
-0.423634
-0.021215
-0.032195
-0.716095
-1.189286
0.815569
-1.585205
-0.774127
0.147383
0.954207
0.483511
1.117985
-0.740205
1.171533
0.574456
-0.238502
0.346392
0.967523
0.780968
0.278483
-0.684266
0.532198
-0.743840
-1.393115
-0.811881
1.018677
0.216560
-0.524815
0.724393
1.014554
-0.424501
-0.900951
0.043713
0.461234
0.174025
-0.168420
-0.115191
0.374733
0.330515
-0.593011
0.913849
-0.436551
-0.699341
0.499887
-0.054544
0.214792
-0.476059
-0.034442
0.131724
0.967008
-0.485530
-0.372381
-0.021764
-0.175551
0.008534
0.575145
-0.021000
-0.349689
1.049704
-0.614320
-0.525373
-1.006468
0.039737
-0.326984
-0.137251
-1.608010
-1.078196
-0.268094
0.583847
0.249654
-0.405490
0.065732
-0.808224
-0.474588
0.103104
-0.310578
0.942497
-0.184056
0.680883
0.556767
1.116908
-0.740774
-1.413438
-1.007808
0.509338
0.217261
1.284913
1.024286
-0.554296
0.006409
-0.953661
-0.741590
0.227866
0.191357
-0.019297
-0.188915
0.721926
0.725172
-0.161895
0.353085
0.040898
0.536499
0.319444
0.075004
-0.212248
0.819316
0.799200
-0.356179
0.094727
0.071858
0.157746
-0.665587
0.653034
-0.200461
-0.108093
-0.003744
0.118065
-1.200821
-0.438978
0.193191
0.694645
0.429098
0.753850
0.223960
-0.488629
0.139597
-0.987308
1.002115
-0.689204
0.589325
-0.041353
0.383745
0.496761
-0.943137
-0.330227
-0.814326
0.683652
-0.907502
-0.230251
-0.185921
0.581505
-0.758095
0.545820
0.338174
0.479776
-1.165805
0.877390
-0.420217
-0.200630
-0.578796
1.172730
-0.729223
0.270429
-0.460702
-1.125436
0.841638
-0.522883
-0.747586
0.576628
-0.324621
-0.473345
-0.123562
-0.474104
-1.230404
-1.021765
-0.240384
-0.554957
-0.575699
0.452016
-0.115107
0.580707
-0.786699
0.020141
0.334337
0.019123
-0.350514
0.081390
-0.060885
0.118387
0.387674
0.560679
-1.154897
1.021788
-0.134711
0.839445
-1.238727
-0.133993
-1.029126
-0.371934
0.780332
-0.008493
0.231395
-0.720168
0.100867
-0.384480
-0.514636
-0.641253
0.241259
1.086082
-0.182972
-0.778296
0.367664
0.437427
0.110845
-0.500851
-0.021113
0.878851
0.559289
-1.150438
-0.744656
-0.633770
0.231929
0.335003
-0.199046
-0.903673
0.299360
0.090567
-0.734697
0.049301
0.653148
-0.456650
-0.735194
-0.942776
-0.376495
1.037586
0.404076
-0.877908
0.869159
-0.421088
0.867963
-0.393562
-0.344882
0.192354
-0.697620
0.483063
0.886304
0.208189
0.580588
-0.164136
0.679015
-0.620133
-1.370356
-0.443736
0.604136
0.118199
-0.575704
0.157506
0.991161
-0.026481
-1.265288
-0.060213
-0.890087
0.133128
0.031015
0.196391
1.594754
0.093619
0.610528
0.464293
0.761312
0.320578
-0.458266
-0.398561
-0.227946
-0.063675
-0.445245
-0.380694
-0.150116
-1.024111
-0.139248
-0.084740
-0.546072
0.481657
-0.947257
0.971722
-0.449034
0.780169
-0.052959
-0.712440
0.365532
0.475552
0.335410
0.800010
1.230505
0.271723
0.138068
0.445988
-0.680392
-0.528489
0.045083
-1.667288
0.536532
0.297671
-0.156125
0.182406
-0.601776
0.416069
0.086168
-0.203864
0.153738
-0.248449
-0.307863
0.284437
-1.150141
0.600130
-0.281308
0.015251
0.204817
-0.989505
-0.060883
-0.011975
0.621312
0.094778
1.044108
0.344717
1.002999
-0.259916
0.306512
-0.790511
0.252351
-0.018939
-0.659006
0.279489
-0.997737
0.570317
1.089050
-0.466164
-0.417298
0.261764
-0.433862
0.420973
0.601874
0.363405
-1.222678
-0.594522
-0.853618
0.898557
-0.632385
0.942984
1.070760
0.469385
0.420602
-0.074150
-0.409165
0.328097
0.810865
-0.715000
-0.609634
0.558799
-0.623561
0.242419
-0.669194
1.297446
-0.086505
-0.086780
-0.311735
-0.206722
-0.069020
-0.286214
0.457430
0.756275
0.691404
0.683283
0.100728
-0.778647
0.514958
1.174874
-1.274663
-0.578663
-0.530130
0.932099
-0.587571
1.167383
0.284196
-0.863655
0.084991
-0.761085
0.009074
0.535305
-0.690935
-0.102591
-0.011545
0.005717
-1.155830
0.557464
0.186814
-0.240774
0.789998
-0.867517
0.233034
0.514204
-0.326119
0.135910
0.373023
0.583463
0.610698
-0.161893
-0.244914
0.405638
0.165294
0.531764
0.318085
0.148713
0.483288
-0.748155
-0.502984
-0.401367
0.129297
0.981801
-0.791560
-0.090117
-0.545331
-0.100345
0.640975
-0.449866
-0.828167
0.008479
0.067532
-0.689205
0.383911
-0.802395
0.771658
0.621661
0.406408
-0.024324
-0.198891
-0.008403
0.411211
0.980661
-0.332643
-0.411565
0.426717
-0.863425
-1.224836
-0.180205
-0.417363
-0.456380
0.880731
0.347039
-0.584265
0.962556
-0.696506
0.003943
-0.252077
-0.586320
0.375485
0.208394
0.159351
-0.821447
0.329451
-0.347274
-0.521374
0.058045
0.749358
-0.886703
0.696678
0.096967
0.213309
0.256684
-0.296464
0.807133
-1.073299
-0.594710
0.963313
-0.658749
0.454604
-0.632070
-0.393814
0.219408
0.630679
0.140984
0.252825
-0.508434
0.789680
0.951540
-0.555923
-0.149806
0.067624
0.773923
0.134243
-0.878241
0.750811
0.766061
-0.109272
1.006838
-0.845818
-0.279519
-0.305545
0.367712
-0.744210
0.684323
0.058062
-0.419915
-0.727237
-0.037528
-0.439491
0.523681
0.191111
0.252124
-0.322556
0.342121
-0.904675
0.820961
0.195925
0.849594
0.677120
0.653624
-0.231008
-0.391010
0.079630
-1.026197
-0.654470
0.226720
0.974268
0.451248
0.078540
-1.044650
-0.574228
1.102396
0.357888
-0.060432
0.851149
-0.501254
0.176810
0.865598
0.327254
0.833782
0.357208
0.056893
-0.239178
1.056891
0.806025
-0.081753
0.789735
0.056388
-0.345412
0.385219
-0.227566
0.249089
0.552462
-0.958984
0.452284
-0.850150
0.227444
0.330931
0.951860
-0.553466
0.549222
-0.574038
-0.643239
-0.024257
0.092550
0.990474
0.520645
-0.763348
0.904249
-0.328946
0.682646
0.049359
0.567653
-0.318843
0.058337
0.339850
0.425509
-0.185216
-0.358210
0.921189
-0.932990
0.406801
0.263361
0.847376
0.476360
-0.124191
-0.833044
-0.106275
-0.645231
1.026440
0.064097
0.958144
-0.749723
0.218203
-0.015688
0.354402
0.230757
-0.851385
0.376719
-0.185629
0.200163
0.472177
0.941489
-0.197631
0.980546
0.070283
-0.572222
0.226599
0.807747
-0.079982
0.139282
0.885550
-0.687550
-0.328080
0.709503
0.944084
0.669830
0.782449
-0.628617
0.929079
0.579432
0.359693
0.803108
0.773855
-0.486646
-0.268663
0.138784
0.584916
0.047322
-0.390546
-0.524483
-0.455020
-0.862524
-0.512857
0.286457
0.953589
0.397435
0.811423
0.226535
0.113095
-0.429261
-0.367751
0.026275
0.191536
0.302970
-0.316914
-0.382304
-0.203216
-0.776600
-0.041414
-0.208978
0.788978
-0.737211
-0.399251
0.679432
-0.296249
0.549538
-0.426974
-0.774059
0.007082
0.608541
-0.354962
0.147464
0.393558
-0.056460
-0.240485
0.593943
-0.781796
-0.823581
-0.036670
0.596352
0.217422
0.291432
-0.469667
0.900488
-0.470204
-0.093451
-0.659788
0.459755
0.171359
0.340649
-0.885692
0.006205
0.571352
-0.223037
-0.415146
-0.808432
-0.439065
0.518509
-0.621218
0.160160
-0.215553
-0.138397
-0.306397
-0.312370
0.718017
-0.041805
-0.908192
-0.890227
0.747752
-0.194262
0.545566
-0.481389
-0.816587
0.778423
-0.617666
-0.206308
-0.318448
-0.361988
-1.033674
0.923480
0.989523
-0.901220
0.028450
0.341066
0.048274
0.521712
0.399498
0.445189
0.000354
0.782508
-0.030713
-0.767039
-0.308925
0.298322
-0.305063
-0.640865
-0.485827
0.033892
-0.143633
0.702476
0.351590
0.953317
-1.042275
1.301628
0.922245
-0.507949
-0.976378
-0.572892
-0.010987
-0.527209
-0.723846
-0.492198
-0.186025
0.380176
-0.991628
0.624781
-0.125734
0.582751
0.409489
-0.625591
0.254760
-0.863254
-0.191011
-1.077804
0.704899
0.188823
-0.868709
0.708273
-0.673545
-0.109487
0.593456
1.045461
-0.067628
0.763541
0.709711
-0.246299
0.914532
-0.727773
-0.245911
-0.618714
-0.052131
0.955019
0.510885
0.269401
0.384243
0.499978
-0.054074
-0.329643
-0.206274
-0.223586
0.320599
-0.387655
0.100861
0.473967
-0.462230
-0.537976
0.268643
-0.379911
-0.853975
-0.046973
0.577542
0.316546
0.442001
-0.068107
0.337562
0.089468
-0.036095
-0.312789
0.132711
-0.525656
0.656998
-0.961454
-0.291026
0.070649
0.849971
-0.644189
-0.145384
0.651349
-0.262766
0.148608
1.123439
0.586490
0.501072
0.114944
0.982442
0.219137
0.239133
0.276932
-0.639325
-0.122584
-0.640353
0.833048
0.641292
0.348868
-0.868559
-0.212429
0.272881
0.655965
0.784391
-0.898845
-0.727577
0.277663
-0.787348
0.109311
-0.912515
-0.730030
0.689272
-0.297109
-0.203105
-0.497233
-0.624521
0.165772
-0.868816
0.281209
1.156405
1.075646
0.137132
-0.331323
-0.131101
0.041236
-0.062543
-0.406361
0.476307
1.358891
-0.084632
0.798751
-0.590762
0.331099
0.870562
-1.051031
-1.051411
-0.955730
0.308590
-0.277979
-0.584803
0.277119
-0.651673
0.882308
0.004722
0.545437
-0.901757
-0.036160
-0.116397
-0.553170
-0.252071
-0.156816
-0.472196
0.351909
-0.569897
-0.437820
0.353678
0.597837
-0.874302
-0.556887
-0.442917
-0.011034
-0.098425
0.180757
-0.054035
-0.470412
0.227006
0.235992
0.380713
0.059331
0.770129
0.303529
-0.395352
-0.944337
0.049369
0.583404
-0.883649
0.229261
-0.860436
0.063403
0.051431
-0.420009
-0.311447
0.259777
-0.216306
-0.481299
-0.136710
0.120981
0.119784
0.419511
-0.802986
-0.812163
-0.281537
-0.031696
0.742437
0.745108
0.095450
0.503280
-0.141111
-0.517853
0.898179
-0.448549
0.182889
-0.249789
-0.152773
-1.102312
-0.797101
0.074012
0.052234
-0.681148
0.059156
-0.928609
0.229271
-0.202886
-0.441701
-1.276347
0.185775
-0.390256
0.630978
-0.387751
-0.506871
1.373983
-0.200360
0.311935
-0.320792
-0.516495
-0.030554
1.207687
1.182765
0.510931
0.517713
0.575760
-0.909014
0.034858
-0.603998
-0.130024
-0.218765
-0.775438
0.174605
0.811529
-0.277428
-0.295107
-0.671511
-0.992569
0.842049
-1.056091
-0.972639
-0.171296
0.161757
-0.476429
-0.020708
0.607726
-0.749260
-1.117577
0.119224
-0.063407
-0.196962
-0.955468
-0.496055
-0.735241
-0.896578
-1.316451
0.343317
-0.556460
-0.024501
0.747362
1.148792
0.389655
-0.917319
-0.432432
0.747410
-0.387729
0.275715
0.214331
0.218200
0.032676
1.162743
0.965391
0.877325
0.492726
-0.981810
-0.118262
-0.501310
-1.033692
-0.060859
-0.829271
-0.316070
0.547279
-0.680807
-0.340824
-0.065369
-0.748532
0.200817
0.345732
0.234620
-0.955033
-0.048846
-0.541361
-1.379651
-0.118674
-0.127263
0.484620
-0.935390
-0.677142
0.694557
0.734909
0.243912
0.836173
0.497140
0.356226
-0.546776
0.455346
0.397339
0.640079
0.615898
-0.039235
0.609356
-0.092667
-0.634396
-0.769495
-0.793962
0.277589
-0.183696
0.720822
-0.375288
0.534709
0.933712
0.810089
-1.112325
-1.269598
-0.091078
-0.002845
0.664821
0.080621
0.298937
0.675080
0.175585
0.074032
0.498594
-0.043811
0.955014
0.666153
-1.130796
1.009383
0.013784
-0.680198
-0.132117
0.077123
0.262363
-0.603520
0.845636
0.798569
-0.700696
-0.186242
0.057015
-0.014001
0.452186
-0.113888
0.422779
0.522154
-0.309295
-1.425859
-0.495574
-0.472280
0.621242
-0.796850
-0.923138
0.252450
0.379560
0.065595
0.846296
0.269992
-0.676114
-0.508437
-0.009449
-1.493653
0.550897
0.398354
0.659289
0.021119
-0.874406
0.458732
-0.352585
-0.562951
-0.060976
0.592962
0.961513
-0.743876
-1.033874
-0.794145
0.602413
0.030130
-0.340543
-0.271069
0.528642
-0.754042
0.074865
0.996150
0.029663
-0.134105
-0.048627
-0.424627
1.045473
0.432275
0.732454
-0.395249
0.288996
0.350669
-0.537079
0.134315
-0.766651
-0.169243
-0.012684
-0.299601
-0.963507
-0.197930
0.410776
0.663284
-0.284316
-0.993020
-0.543200
0.209337
0.162031
-0.093498
1.366197
-0.108026
0.610552
-0.144550
-0.078282
-0.726272
0.393704
-0.502186
0.094775
-0.178233
0.733143
0.666758
0.589725
0.696081
0.048709
1.039624
-0.764277
0.132173
1.400803
-0.833754
0.952866
-0.040120
-0.918375
0.544646
-1.239339
0.693963
0.903747
-0.427505
-0.250724
0.091131
-0.108076
-0.932313
-0.825086
-0.716267
0.113112
-0.074791
-0.463515
-0.634155
0.213802
-0.308469
0.360712
-0.120793
-0.685359
0.116208
-0.562959
0.078750
-0.051724
-0.112536
-0.769692
-0.336904
0.212859
-0.765265
0.081678
0.776761
0.772013
0.273132
0.539244
0.534682
0.226276
-0.751873
-0.515543
-0.598845
-0.459106
-0.674263
-0.340254
0.607139
0.660156
0.672598
0.647990
-0.245770
1.273819
0.014486
0.688741
-1.067618
-0.613520
-1.007010
0.298711
0.135080
-0.074799
0.522226
0.728215
0.668584
0.511031
-0.135519
0.649810
0.639526
0.798499
0.366525
0.228310
0.005937
0.625502
0.343791
0.813536
-0.828876
1.028584
-0.303216
0.427256
0.647968
-0.544850
0.346473
-0.874943
-1.040530
-0.375000
0.670861
-0.683936
-0.092602
0.674734
0.373372
0.842438
-0.344626
-0.058602
0.757937
-0.435687
-0.002591
-0.577385
-0.780532
-0.407351
-0.916371
0.582726
0.649751
0.465431
0.118507
0.107273
0.280097
-0.073360
0.225912
1.051533
-0.412982
-0.621803
0.734832
-0.865914
-0.682026
1.136600
-0.105870
-1.016049
-0.915586
0.679551
0.864408
0.326192
0.566706
-0.515458
-0.118141
0.380210
-0.061537
0.690111
0.567321
0.278162
-0.810526
1.016620
-0.341754
0.799282
0.254121
0.693648
-0.063386
-0.420819
-0.187989
0.774756
-0.854427
0.708213
0.900085
-0.752718
0.671684
-0.851320
0.987591
-0.599853
-0.643460
-0.765967
-0.736387
-0.797221
0.890707
1.036139
-0.384243
-0.472037
0.070801
0.704542
-0.786018
-0.000640
-0.384959
-0.554673
-0.227803
0.320357
-0.674465
1.128520
0.055626
-0.022621
-0.473546
0.993329
-0.501793
-0.228106
0.455116
-0.680688
-0.362272
0.151797
-0.094324
-0.315007
1.076921
0.135321
-0.238455
-0.747044
0.337302
-0.475160
-0.752455
0.880358
0.100205
0.191959
0.265817
0.180405
-0.890221
-0.985803
0.611463
-0.192521
0.414897
0.815649
-0.048289
-0.668517
-0.319240
0.375830
-0.625121
0.255115
0.906901
1.179483
0.681763
-0.288117
0.465152
-0.561582
0.178524
0.314643
0.617174
0.894606
0.684183
-0.101466
-0.568393
0.655829
-0.300407
0.309101
0.109275
-0.771086
-0.438167
0.285626
-0.631075
-0.747983
-0.690051
0.569236
0.992323
0.164492
-0.925488
-0.319535
-0.590290
-0.299494
0.819026
-0.469451
-0.345060
0.519450
-0.050063
0.839323
0.923233
-0.906153
0.121776
0.484549
0.936900
-0.253212
-0.538872
-0.692737
-0.490790
0.185617
0.690361
0.969511
0.688730
-0.672519
0.105213
0.876144
-0.580256
0.556722
0.598412
-0.682159
-0.481909
0.845516
-0.066407
0.305464
-0.733698
-0.117662
0.409639
-0.333976
-0.764605
-0.593617
-0.387190
-0.912588
-0.599487
0.697061
0.744113
-0.676305
-0.274396
-1.031060
-0.405849
0.524114
0.632317
-0.802722
0.057647
-0.079626
-0.663796
-0.475051
0.117107
-0.314593
0.816953
-0.176871
0.165446
-0.439094
-0.715016
1.117202
0.488737
-0.466170
-0.273155
-0.083369
0.258540
-0.050639
0.087178
0.759186
0.190709
0.408654
0.566272
-0.132900
0.700577
-0.662506
0.213904
-0.854635
0.555200
-0.687121
-0.729030
-0.025667
0.944049
-0.472411
0.231814
-0.131020
0.391836
0.297293
0.304423
-0.612244
0.652336
0.818844
-0.759669
0.072801
-0.633333
-0.071655
0.781766
0.586085
-0.987690
-0.113728
0.070391
0.378043
-0.876276
-0.249431
-0.953261
0.586226
-0.051534
0.055148
0.775292
-0.199714
-0.897463
-0.900946
0.654175
0.803618
-0.233916
0.063967
-0.380906
1.077291
0.836344
-1.088557
-0.724553
0.225699
1.264011
-0.325579
-0.513214
-0.876624
0.591978
1.174981
0.392234
0.395630
-0.791229
-0.577425
-0.209144
-0.516755
0.462104
0.019477
-0.734212
-0.445570
-0.537697
-0.683668
0.334969
-0.414272
-0.422332
0.338457
-1.027390
-0.175938
0.778267
0.304832
0.035340
0.547701
0.338954
0.509299
0.075769
-0.001693
0.947491
0.480918
0.106942
0.153523
-0.162815
-0.067092
0.223877
0.893053
0.178823
-0.852799
-0.534236
-0.450585
0.039175
-0.294346
0.619327
0.614040
0.611120
-0.034272
-1.339723
0.709947
0.909637
-0.283577
-0.195610
0.897461
0.237321
-0.832849
0.315092
0.058120
0.618936
-0.959828
0.672531
0.160219
0.053969
0.014882
-0.028331
-0.585002
0.075026
-1.124817
-0.955208
0.053303
-0.525916
-0.223702
-0.629825
0.162344
0.115492
0.644322
-0.556706
-0.731522
-0.501459
0.077504
0.547129
-0.381643
0.449017
-0.454815
-1.016294
-0.403464
-0.157529
0.542696
-0.018447
-0.542513
0.832658
0.351992
0.781442
0.025254
-0.995699
-0.889955
0.140788
0.562725
-0.499082
0.258754
0.022561
-0.113487
0.613756
-0.036507
-0.812759
0.354430
-0.616555
-0.069672
-0.219354
0.208061
0.479365
0.078637
-0.051680
-0.777080
0.805775
0.840355
0.307074
-0.512864
0.184495
-0.429400
-0.060643
-0.562129
-1.077689
-0.495643
0.166255
-0.422572
-0.432495
-0.316855
0.940638
0.803227
0.474783
-0.001054
-0.716393
0.863236
0.185768
-0.468286
-0.462922
1.179407
0.117653
0.360831
0.307273
-0.371615
-0.826906
-0.451207
0.050170
-0.508038
-0.851710
-0.120478
-0.005511
0.206461
-1.113732
0.897093
0.677324
-1.083847
-0.702014
0.105542
-0.922449
0.552265
0.969049
-0.703732
0.214344
1.210041
-0.201943
0.409452
0.280627
-0.775669
1.382369
0.338370
-0.160279
0.140773
-0.376304
0.641182
0.908434
0.323382
0.763819
0.197449
-1.802459
-0.947959
-0.285214
-0.193439
0.385731
-0.199316
-0.076667
0.409881
-0.190178
0.344344
-0.325522
0.275123
-0.028421
-0.493201
0.362090
0.194511
0.965542
-0.577289
-0.481835
-0.150712
-0.096970
-0.161173
-0.850526
0.187370
0.045706
0.119718
-0.474138
0.624790
-0.641093
-0.688479
-0.581624
-0.203397
-0.596586
1.109023
0.912647
0.522838
-0.468198
-0.108425
-0.238065
0.202635
1.580725
0.621844
-0.814555
-0.964840
0.369821
0.729403
0.551341
0.134927
0.905146
0.680827
-0.616370
-0.156586
-1.046225
-0.469090
-0.123265
0.573550
-1.103486
0.844453
-0.325612
0.035324
-0.865910
0.938718
0.933140
-0.631920
0.186776
1.103310
0.385330
0.459924
-0.031541
-0.548388
0.098663
-0.776296
-0.954005
0.718828
-0.399901
0.533366
0.226622
0.333895
-0.121732
0.190403
0.234006
-0.028797
0.534213
0.682904
-1.075575
0.051841
0.182896
-0.387220
-0.079594
-0.448451
0.525548
0.063519
0.990852
0.502898
0.088590
0.035487
0.317558
-0.062631
-0.075653
-1.648842
0.985926
1.043584
-0.675600
0.398645
0.325904
0.225055
0.449584
-0.738927
-0.376236
-0.911345
-0.133977
-0.678249
0.714510
-0.682411
-0.411905
1.043302
0.282840
-0.477037
-0.933513
-0.384515
-0.576011
0.236470
0.053963
-0.012772
0.170354
-0.507605
0.893998
-0.935352
0.353971
-0.490871
-1.097964
0.559986
-0.384126
-0.426635
-0.322483
0.343629
-0.198604
-0.710996
1.062309
0.659345
-0.458269
-0.245672
-0.244113
-0.722530
-0.144767
0.525432
-1.029586
-0.537784
0.788506
-1.149455
-0.371347
-0.727448
-0.767500
0.586321
0.131282
-0.125153
1.099908
-0.967807
0.028515
0.238782
0.428235
0.365852
-0.962200
0.963752
-0.144311
0.239494
0.952566
0.209920
0.348119
0.176610
0.053896
-0.605930
0.611728
0.971727
-0.327640
-0.273137
-0.595200
-0.558473
-0.027548
-0.141982
0.666300
0.218305
0.227891
0.436893
0.278776
0.547715
-0.646194
-0.367644
-0.393509
-0.548372
1.142983
0.753272
0.628228
0.487643
1.082132
-0.107598
0.089099
0.161842
0.769304
-0.668916
-1.111117
0.061164
-0.754474
0.379235
-1.326393
-0.174499
0.017799
0.157666
0.595087
0.166063
-0.901040
-0.096109
0.280729
0.241803
-1.619522
-0.543821
0.631885
0.673335
0.456562
0.178633
-0.052265
-0.195946
0.378043
-0.078002
-0.024512
-0.897232
0.301300
0.146087
0.593858
0.930480
-0.302277
0.048000
-0.229743
-0.205091
0.801511
-0.252998
0.689381
0.936347
-1.098538
0.618438
0.663801
-0.840560
-0.815310
-0.183491
0.871195
-0.625361
-0.247396
-0.706761
-0.772531
0.708807
0.932232
0.941962
-0.409789
-0.015809
-0.047063
0.357710
0.615758
-0.271144
0.558146
-0.134510
-0.286817
0.291625
-0.370401
0.701571
-0.200858
0.877346
0.884908
-1.077706
0.551913
0.881388
0.310641
0.209874
-0.942767
-0.800973
0.731285
0.503110
0.439015
-0.381052
0.406156
0.885944
-0.438459
0.685669
0.242159
-0.108868
-0.606920
-0.903312
-0.163309
-0.785540
0.009025
0.470488
0.410092
0.616541
0.454080
0.845857
-0.174893
0.571987
0.749221
-0.292631
-1.002259
0.438128
-0.461353
0.646308
-0.414067
-0.269823
0.794952
-1.050100
0.888821
0.103796
-0.373631
0.568518
-0.784143
0.181219
0.011506
0.849096
0.631641
0.748391
-1.123891
-0.973058
0.716502
-0.040365
0.698855
0.006002
-0.136967
-0.122251
0.010482
0.746906
-0.437816
-0.184652
-0.992296
-0.014492
-0.764569
-0.052736
-0.486691
-0.535918
0.474792
-0.798128
-0.234576
0.354972
-0.048975
0.808124
-0.212305
0.553715
-0.170720
0.879734
0.207394
-0.827257
0.521613
0.167876
-0.610089
0.398365
-0.613849
0.839304
-0.501365
0.182553
-0.342105
0.587896
-0.331060
0.533810
-0.694132
0.051898
-0.814145
-0.731160
0.943873
-0.297553
-0.055002
0.313048
-0.221807
-0.886200
-0.574181
0.981156
0.882678
0.283828
0.333374
-0.347704
0.081441
-0.601021
-0.089087
-0.288838
0.838385
0.199780
-0.787380
-1.103717
-0.077141
-0.159098
0.104279
0.705134
-0.707212
0.947620
0.039631
-0.508908
0.020997
0.454181
0.023457
-0.242190
0.908210
-0.624276
0.789724
0.036061
-0.684176
-0.853901
-0.300830
-0.989971
0.486440
1.047457
-0.191310
-0.309350
-0.418259
0.725964
0.589293
-0.972012
-0.252519
0.908942
-0.852783
0.892251
-0.533267
0.413312
0.614921
-0.258385
0.397502
-0.189751
0.420605
-0.864215
0.972710
-0.404817
-0.360100
1.024524
-0.244303
-0.649528
-0.320218
-0.060342
-0.158067
0.366180
0.259625
-0.607878
0.287321
-1.030972
0.204918
0.719093
0.827695
-0.283783
0.933101
-0.621990
-0.645335
-0.998801
-0.710350
-0.044230
0.373152
0.868488
0.847785
-0.384966
-0.360959
0.116177
-0.325293
-0.476787
0.725163
0.389745
-0.671779
-0.291623
0.848297
0.170136
0.646234
-0.361068
-0.723243
-0.204743
0.061331
0.483505
-0.004093
-0.794985
0.215846
-0.589258
-0.147481
-0.068214
0.016438
0.469683
-0.005608
0.436734
-0.446724
-0.589103
0.507399
-0.818526
0.021973
1.048746
0.481954
0.702359
-0.521732
0.450518
-0.023561
0.010260
0.877540
-0.151801
0.774322
0.359833
0.439339
0.981355
-0.762061
-0.560481
0.414395
0.037714
-0.266836
-0.425453
0.521249
0.609575
0.569410
-0.047212
0.355466
-0.396279
-0.775067
0.722230
-0.073750
0.873365
-0.932754
0.852295
0.755909
0.714079
0.490830
-0.398326
-0.081704
-0.461857
0.054732
-0.414663
0.215327
-0.135447
-0.982194
-0.374258
-0.367059
-0.771023
0.212857
-0.878305
0.410878
0.851368
-0.359162
0.231425
0.847098
-0.773439
-1.068320
-0.097843
-0.393638
-0.567131
-0.230527
0.474397
-0.810812
0.022813
0.395723
1.090116
-0.641208
-0.052278
-0.827176
0.301285
0.251146
0.252623
0.820842
-0.436298
0.767396
0.870886
0.313639
-0.490347
-0.908160
-0.411181
-0.393888
0.611127
-0.325640
0.234977
-0.137405
-0.906409
0.248438
0.043228
0.414128
0.775140
0.358832
-0.867757
0.368644
0.556487
-0.230775
-0.278781
0.364808
0.353469
0.440328
0.469335
-0.396909
-0.292251
-0.492571
-0.551411
0.406163
-0.606758
-0.973647
-0.062506
-0.247753
-0.686337
0.283199
0.154075
-1.079485
-1.247938
-0.637962
0.023403
-0.531684
0.663268
0.946176
0.713405
0.577843
0.361903
0.707456
-0.079453
-0.606523
-0.336149
0.435513
0.505649
-0.446569
-0.062194
0.064719
-0.624514
0.727342
0.525984
-0.334300
-0.054929
0.043864
-0.370287
0.865531
-0.952279
0.346182
0.328276
0.369746
0.363758
0.508213
-1.010747
-0.669449
0.893375
0.801302
-0.482633
0.306774
-0.204488
0.348947
0.734020
-1.081669
0.676677
-0.551772
0.519520
0.503165
-0.853645
-0.529503
-0.451978
-0.180170
-1.339944
0.425897
1.190984
0.311626
0.301561
-0.616165
0.339651
0.363281
0.748701
-0.351731
-0.262209
0.358259
-0.816230
0.195516
0.715687
-1.185012
-0.794780
-0.633284
0.658925
0.882350
0.754884
0.036918
0.905864
-0.190447
0.873853
0.335570
-0.180182
-1.128454
0.383173
-0.484761
-0.063306
0.963665
-1.200104
-1.175588
0.211818
0.095029
0.547385
-0.595999
-0.332971
0.481960
0.187860
-0.126315
0.107661
0.062529
0.354565
-0.532846
0.385117
-0.775021
-0.473169
0.363919
-0.900288
0.623604
-0.618939
-0.607188
0.171365
0.874646
0.444025
0.356617
1.567640
0.353376
0.834489
-0.325094
-0.134956
0.833773
0.493399
-0.427218
0.513992
-0.054799
-0.037985
0.455131
1.717204
1.023234
-0.225002
-0.746037
0.334029
-0.649599
0.048878
-0.473186
-0.250358
0.371742
0.024071
1.009114
0.538184
0.591675
1.036354
-0.744040
0.445488
0.447606
0.267821
0.384500
-0.713003
-0.000840
0.813274
0.943201
0.197294
0.143504
-0.481817
-0.864664
1.849843
-0.147296
0.875384
0.410130
0.947435
-0.709244
-0.661176
1.088262
0.022025
1.087153
-1.264270
-0.295617
0.001591
0.402795
1.122103
-0.386636
-0.038232
0.843018
0.020068
-0.487687
-0.435395
-0.922494
